<?xml version="1.0"?>
<MethodSetup Method="BDT::BDT">
  <GeneralInfo>
    <Info name="TMVA Release" value="4.2.0 [262656]"/>
    <Info name="ROOT Release" value="6.02/05 [393733]"/>
    <Info name="Creator" value="flowers1"/>
    <Info name="Date" value="Tue Sep 15 13:57:29 2015"/>
    <Info name="Host" value="Linux cmsbuild32.cern.ch 2.6.32-504.8.1.el6.x86_64 #1 SMP Wed Jan 28 08:50:46 CET 2015 x86_64 x86_64 x86_64 GNU/Linux"/>
    <Info name="Dir" value="/uscms_data/d3/flowers1/May2015/CMSSW_7_4_4_patch4/src/ttH-LeptonPlusJets/AnalysisCode/macros/TRAINHOUSE74X"/>
    <Info name="Training events" value="47908"/>
    <Info name="TrainingTime" value="3.53579881e+01"/>
    <Info name="AnalysisType" value="Classification"/>
  </GeneralInfo>
  <Options>
    <Option name="V" modified="Yes">False</Option>
    <Option name="VerbosityLevel" modified="No">Default</Option>
    <Option name="VarTransform" modified="No">None</Option>
    <Option name="H" modified="Yes">False</Option>
    <Option name="CreateMVAPdfs" modified="No">False</Option>
    <Option name="IgnoreNegWeightsInTraining" modified="No">False</Option>
    <Option name="NTrees" modified="Yes">924</Option>
    <Option name="MaxDepth" modified="Yes">2</Option>
    <Option name="MinNodeSize" modified="No">5%</Option>
    <Option name="nCuts" modified="Yes">59</Option>
    <Option name="BoostType" modified="Yes">Grad</Option>
    <Option name="AdaBoostR2Loss" modified="No">quadratic</Option>
    <Option name="UseBaggedBoost" modified="Yes">True</Option>
    <Option name="Shrinkage" modified="Yes">3.886864e-02</Option>
    <Option name="AdaBoostBeta" modified="No">5.000000e-01</Option>
    <Option name="UseRandomisedTrees" modified="No">False</Option>
    <Option name="UseNvars" modified="No">3</Option>
    <Option name="UsePoissonNvars" modified="No">True</Option>
    <Option name="BaggedSampleFraction" modified="No">4.053659e-01</Option>
    <Option name="UseYesNoLeaf" modified="No">True</Option>
    <Option name="NegWeightTreatment" modified="Yes">ignorenegweightsintraining</Option>
    <Option name="Css" modified="No">1.000000e+00</Option>
    <Option name="Cts_sb" modified="No">1.000000e+00</Option>
    <Option name="Ctb_ss" modified="No">1.000000e+00</Option>
    <Option name="Cbb" modified="No">1.000000e+00</Option>
    <Option name="NodePurityLimit" modified="No">5.000000e-01</Option>
    <Option name="SeparationType" modified="No">giniindex</Option>
    <Option name="DoBoostMonitor" modified="No">False</Option>
    <Option name="UseFisherCuts" modified="No">False</Option>
    <Option name="MinLinCorrForFisher" modified="No">8.000000e-01</Option>
    <Option name="UseExclusiveVars" modified="No">False</Option>
    <Option name="DoPreselection" modified="No">False</Option>
    <Option name="SigToBkgFraction" modified="No">1.000000e+00</Option>
    <Option name="PruneMethod" modified="No">nopruning</Option>
    <Option name="PruneStrength" modified="No">0.000000e+00</Option>
    <Option name="PruningValFraction" modified="No">5.000000e-01</Option>
    <Option name="nEventsMin" modified="No">0</Option>
    <Option name="UseBaggedGrad" modified="No">False</Option>
    <Option name="GradBaggingFraction" modified="Yes">4.053659e-01</Option>
    <Option name="UseNTrainEvents" modified="No">0</Option>
    <Option name="NNodesMax" modified="No">0</Option>
  </Options>
  <Variables NVar="8">
    <Variable VarIndex="0" Expression="h1" Label="h1" Title="h1" Unit="h1" Internal="h1" Type="F" Min="-2.00946406e-01" Max="3.74896616e-01"/>
    <Variable VarIndex="1" Expression="HT" Label="HT" Title="HT" Unit="HT" Internal="HT" Type="F" Min="1.72392746e+02" Max="3.49345410e+03"/>
    <Variable VarIndex="2" Expression="avg_dr_tagged_jets" Label="avg_dr_tagged_jets" Title="avg_dr_tagged_jets" Unit="avg_dr_tagged_jets" Internal="avg_dr_tagged_jets" Type="F" Min="5.26826799e-01" Max="3.99807525e+00"/>
    <Variable VarIndex="3" Expression="sphericity" Label="sphericity" Title="sphericity" Unit="sphericity" Internal="sphericity" Type="F" Min="1.39132068e-02" Max="9.25845981e-01"/>
    <Variable VarIndex="4" Expression="dev_from_avg_disc_btags" Label="dev_from_avg_disc_btags" Title="dev_from_avg_disc_btags" Unit="dev_from_avg_disc_btags" Internal="dev_from_avg_disc_btags" Type="F" Min="1.47893156e-10" Max="2.32626895e+04"/>
    <Variable VarIndex="5" Expression="h3" Label="h3" Title="h3" Unit="h3" Internal="h3" Type="F" Min="-2.87954025e-02" Max="1.06798148e+00"/>
    <Variable VarIndex="6" Expression="third_highest_btag" Label="third_highest_btag" Title="third_highest_btag" Unit="third_highest_btag" Internal="third_highest_btag" Type="F" Min="8.90001178e-01" Max="9.99837756e-01"/>
    <Variable VarIndex="7" Expression="fourth_highest_btag" Label="fourth_highest_btag" Title="fourth_highest_btag" Unit="fourth_highest_btag" Internal="fourth_highest_btag" Type="F" Min="-1.00000000e+01" Max="8.89990628e-01"/>
  </Variables>
  <Spectators NSpec="0"/>
  <Classes NClass="2">
    <Class Name="Signal" Index="0"/>
    <Class Name="Background" Index="1"/>
  </Classes>
  <Transformations NTransformations="0"/>
  <MVAPdfs/>
  <Weights NTrees="924" AnalysisType="1">
    <BinaryTree type="DecisionTree" boostWeight="1.0000000000000000e+00" itree="0">
      <Node pos="s" depth="0" NCoef="0" IVar="6" Cut="9.5041066408157349e-01" cType="1" res="5.8870739303529263e-04" rms="4.9999964237213135e-01" purity="5.0058865547180176e-01" nType="0">
        <Node pos="l" depth="1" NCoef="0" IVar="7" Cut="7.0843058824539185e-01" cType="1" res="-7.2962202131748199e-02" rms="4.9464786052703857e-01" purity="4.2703780531883240e-01" nType="0">
          <Node pos="l" depth="2" NCoef="0" IVar="-1" Cut="0.0000000000000000e+00" cType="1" res="-9.2513198032975197e-03" rms="4.8600953817367554e-01" purity="3.8254901766777039e-01" nType="-99"/>
          <Node pos="r" depth="2" NCoef="0" IVar="-1" Cut="0.0000000000000000e+00" cType="1" res="7.0927808992564678e-03" rms="4.9118113517761230e-01" purity="5.9349387884140015e-01" nType="-99"/>
        </Node>
        <Node pos="r" depth="1" NCoef="0" IVar="2" Cut="2.4169180393218994e+00" cType="1" res="1.3681681454181671e-01" rms="4.8091700673103333e-01" purity="6.3681679964065552e-01" nType="0">
          <Node pos="l" depth="2" NCoef="0" IVar="-1" Cut="0.0000000000000000e+00" cType="1" res="1.4111063443124294e-02" rms="4.6285614371299744e-01" purity="6.8911421298980713e-01" nType="-99"/>
          <Node pos="r" depth="2" NCoef="0" IVar="-1" Cut="0.0000000000000000e+00" cType="1" res="-1.6028009122237563e-03" rms="4.9957108497619629e-01" purity="4.7929430007934570e-01" nType="-99"/>
        </Node>
      </Node>
    </BinaryTree>
    <BinaryTree type="DecisionTree" boostWeight="1.0000000000000000e+00" itree="1">
      <Node pos="s" depth="0" NCoef="0" IVar="6" Cut="9.4667243957519531e-01" cType="1" res="5.5432217195630074e-03" rms="4.9869102239608765e-01" purity="5.0553458929061890e-01" nType="0">
        <Node pos="l" depth="1" NCoef="0" IVar="7" Cut="7.0826828479766846e-01" cType="1" res="-7.0515252649784088e-02" rms="4.9404641985893250e-01" purity="4.2668709158897400e-01" nType="0">
          <Node pos="l" depth="2" NCoef="0" IVar="-1" Cut="0.0000000000000000e+00" cType="1" res="-8.8613387197256088e-03" rms="4.8608878254890442e-01" purity="3.8287749886512756e-01" nType="-99"/>
          <Node pos="r" depth="2" NCoef="0" IVar="-1" Cut="0.0000000000000000e+00" cType="1" res="5.7135978713631630e-03" rms="4.9377706646919250e-01" purity="5.7865804433822632e-01" nType="-99"/>
        </Node>
        <Node pos="r" depth="1" NCoef="0" IVar="2" Cut="2.5856473445892334e+00" cType="1" res="1.2481167912483215e-01" rms="4.8231399059295654e-01" purity="6.2917655706405640e-01" nType="0">
          <Node pos="l" depth="2" NCoef="0" IVar="-1" Cut="0.0000000000000000e+00" cType="1" res="1.1859038844704628e-02" rms="4.7215989232063293e-01" purity="6.6340512037277222e-01" nType="-99"/>
          <Node pos="r" depth="2" NCoef="0" IVar="-1" Cut="0.0000000000000000e+00" cType="1" res="-7.3414701037108898e-03" rms="4.9094071984291077e-01" purity="4.0531063079833984e-01" nType="-99"/>
        </Node>
      </Node>
    </BinaryTree>
    <BinaryTree type="DecisionTree" boostWeight="1.0000000000000000e+00" itree="2">
      <Node pos="s" depth="0" NCoef="0" IVar="6" Cut="9.5954835414886475e-01" cType="1" res="3.4174898173660040e-03" rms="4.9729073047637939e-01" purity="5.0360256433486938e-01" nType="0">
        <Node pos="l" depth="1" NCoef="0" IVar="7" Cut="7.0837873220443726e-01" cType="1" res="-6.1964973807334900e-02" rms="4.9410456418991089e-01" purity="4.3454834818840027e-01" nType="0">
          <Node pos="l" depth="2" NCoef="0" IVar="-1" Cut="0.0000000000000000e+00" cType="1" res="-8.6554903537034988e-03" rms="4.8558399081230164e-01" purity="3.8361918926239014e-01" nType="-99"/>
          <Node pos="r" depth="2" NCoef="0" IVar="-1" Cut="0.0000000000000000e+00" cType="1" res="7.6376302167773247e-03" rms="4.8804709315299988e-01" purity="6.0769504308700562e-01" nType="-99"/>
        </Node>
        <Node pos="r" depth="1" NCoef="0" IVar="2" Cut="2.4401097297668457e+00" cType="1" res="1.7436790466308594e-01" rms="4.6384885907173157e-01" purity="6.8415331840515137e-01" nType="0">
          <Node pos="l" depth="2" NCoef="0" IVar="-1" Cut="0.0000000000000000e+00" cType="1" res="1.5566756948828697e-02" rms="4.4774001836776733e-01" purity="7.2243922948837280e-01" nType="-99"/>
          <Node pos="r" depth="2" NCoef="0" IVar="-1" Cut="0.0000000000000000e+00" cType="1" res="3.7756050005555153e-03" rms="4.9708890914916992e-01" purity="5.4863339662551880e-01" nType="-99"/>
        </Node>
      </Node>
    </BinaryTree>
    <BinaryTree type="DecisionTree" boostWeight="1.0000000000000000e+00" itree="3">
      <Node pos="s" depth="0" NCoef="0" IVar="6" Cut="9.5773965120315552e-01" cType="1" res="1.0351772652938962e-03" rms="4.9618962407112122e-01" purity="5.0085830688476562e-01" nType="0">
        <Node pos="l" depth="1" NCoef="0" IVar="1" Cut="3.0040554809570312e+02" cType="1" res="-5.7639434933662415e-02" rms="4.9390208721160889e-01" purity="4.3585944175720215e-01" nType="0">
          <Node pos="l" depth="2" NCoef="0" IVar="-1" Cut="0.0000000000000000e+00" cType="1" res="-1.6098037362098694e-02" rms="4.5274466276168823e-01" purity="2.9185366630554199e-01" nType="-99"/>
          <Node pos="r" depth="2" NCoef="0" IVar="-1" Cut="0.0000000000000000e+00" cType="1" res="-1.3245828449726105e-03" rms="4.9750888347625732e-01" purity="4.7662007808685303e-01" nType="-99"/>
        </Node>
        <Node pos="r" depth="1" NCoef="0" IVar="2" Cut="2.4592709541320801e+00" cType="1" res="1.4941033720970154e-01" rms="4.7033017873764038e-01" purity="6.6522622108459473e-01" nType="0">
          <Node pos="l" depth="2" NCoef="0" IVar="-1" Cut="0.0000000000000000e+00" cType="1" res="1.3979677110910416e-02" rms="4.5473155379295349e-01" purity="7.0746588706970215e-01" nType="-99"/>
          <Node pos="r" depth="2" NCoef="0" IVar="-1" Cut="0.0000000000000000e+00" cType="1" res="2.8038970776833594e-04" rms="4.9940732121467590e-01" purity="5.0416809320449829e-01" nType="-99"/>
        </Node>
      </Node>
    </BinaryTree>
    <BinaryTree type="DecisionTree" boostWeight="1.0000000000000000e+00" itree="4">
      <Node pos="s" depth="0" NCoef="0" IVar="6" Cut="9.4674950838088989e-01" cType="1" res="-2.7250889688730240e-03" rms="4.9500405788421631e-01" purity="4.9737834930419922e-01" nType="0">
        <Node pos="l" depth="1" NCoef="0" IVar="7" Cut="7.0843058824539185e-01" cType="1" res="-7.8879542648792267e-02" rms="4.8983162641525269e-01" purity="4.1072547435760498e-01" nType="0">
          <Node pos="l" depth="2" NCoef="0" IVar="-1" Cut="0.0000000000000000e+00" cType="1" res="-9.5745082944631577e-03" rms="4.8052638769149780e-01" purity="3.6332729458808899e-01" nType="-99"/>
          <Node pos="r" depth="2" NCoef="0" IVar="-1" Cut="0.0000000000000000e+00" cType="1" res="5.2688717842102051e-03" rms="4.9346065521240234e-01" purity="5.7737064361572266e-01" nType="-99"/>
        </Node>
        <Node pos="r" depth="1" NCoef="0" IVar="2" Cut="2.4429843425750732e+00" cType="1" res="1.1328303068876266e-01" rms="4.8010042309761047e-01" purity="6.2937891483306885e-01" nType="0">
          <Node pos="l" depth="2" NCoef="0" IVar="-1" Cut="0.0000000000000000e+00" cType="1" res="1.1628369800746441e-02" rms="4.6660694479942322e-01" purity="6.7597293853759766e-01" nType="-99"/>
          <Node pos="r" depth="2" NCoef="0" IVar="-1" Cut="0.0000000000000000e+00" cType="1" res="-2.7083822060376406e-03" rms="4.9755269289016724e-01" purity="4.6444427967071533e-01" nType="-99"/>
        </Node>
      </Node>
    </BinaryTree>
    <BinaryTree type="DecisionTree" boostWeight="1.0000000000000000e+00" itree="5">
      <Node pos="s" depth="0" NCoef="0" IVar="6" Cut="9.6139556169509888e-01" cType="1" res="4.3155909515917301e-03" rms="4.9411991238594055e-01" purity="5.0398671627044678e-01" nType="0">
        <Node pos="l" depth="1" NCoef="0" IVar="2" Cut="2.4948511123657227e+00" cType="1" res="-4.9531038850545883e-02" rms="4.9341416358947754e-01" purity="4.4071716070175171e-01" nType="0">
          <Node pos="l" depth="2" NCoef="0" IVar="-1" Cut="0.0000000000000000e+00" cType="1" res="-8.7389745749533176e-04" rms="4.9650922417640686e-01" purity="4.7988045215606689e-01" nType="-99"/>
          <Node pos="r" depth="2" NCoef="0" IVar="-1" Cut="0.0000000000000000e+00" cType="1" res="-1.5703441575169563e-02" rms="4.5249855518341064e-01" purity="2.9098540544509888e-01" nType="-99"/>
        </Node>
        <Node pos="r" depth="1" NCoef="0" IVar="1" Cut="3.3519744873046875e+02" cType="1" res="1.5550735592842102e-01" rms="4.6380090713500977e-01" purity="6.8163657188415527e-01" nType="0">
          <Node pos="l" depth="2" NCoef="0" IVar="-1" Cut="0.0000000000000000e+00" cType="1" res="4.4837924651801586e-03" rms="4.9105232954025269e-01" purity="5.8373385667800903e-01" nType="-99"/>
          <Node pos="r" depth="2" NCoef="0" IVar="-1" Cut="0.0000000000000000e+00" cType="1" res="1.4725705608725548e-02" rms="4.4478681683540344e-01" purity="7.2449219226837158e-01" nType="-99"/>
        </Node>
      </Node>
    </BinaryTree>
    <BinaryTree type="DecisionTree" boostWeight="1.0000000000000000e+00" itree="6">
      <Node pos="s" depth="0" NCoef="0" IVar="6" Cut="9.3393838405609131e-01" cType="1" res="-5.3413938730955124e-03" rms="4.9294009804725647e-01" purity="4.9430301785469055e-01" nType="0">
        <Node pos="l" depth="1" NCoef="0" IVar="7" Cut="7.0845341682434082e-01" cType="1" res="-9.6714615821838379e-02" rms="4.8403635621070862e-01" purity="3.8748860359191895e-01" nType="0">
          <Node pos="l" depth="2" NCoef="0" IVar="-1" Cut="0.0000000000000000e+00" cType="1" res="-1.1180444620549679e-02" rms="4.7195127606391907e-01" purity="3.3697116374969482e-01" nType="-99"/>
          <Node pos="r" depth="2" NCoef="0" IVar="-1" Cut="0.0000000000000000e+00" cType="1" res="4.8560425639152527e-03" rms="4.9384871125221252e-01" purity="5.7274234294891357e-01" nType="-99"/>
        </Node>
        <Node pos="r" depth="1" NCoef="0" IVar="2" Cut="2.6217305660247803e+00" cType="1" res="7.9934269189834595e-02" rms="4.8584395647048950e-01" purity="5.9398949146270752e-01" nType="0">
          <Node pos="l" depth="2" NCoef="0" IVar="-1" Cut="0.0000000000000000e+00" cType="1" res="7.9863546416163445e-03" rms="4.8040238022804260e-01" purity="6.2291711568832397e-01" nType="-99"/>
          <Node pos="r" depth="2" NCoef="0" IVar="-1" Cut="0.0000000000000000e+00" cType="1" res="-7.4870632961392403e-03" rms="4.8683261871337891e-01" purity="3.9541533589363098e-01" nType="-99"/>
        </Node>
      </Node>
    </BinaryTree>
    <BinaryTree type="DecisionTree" boostWeight="1.0000000000000000e+00" itree="7">
      <Node pos="s" depth="0" NCoef="0" IVar="6" Cut="9.3759799003601074e-01" cType="1" res="1.3589530135504901e-04" rms="4.9208626151084900e-01" purity="4.9944782257080078e-01" nType="0">
        <Node pos="l" depth="1" NCoef="0" IVar="1" Cut="3.4820050048828125e+02" cType="1" res="-8.2165412604808807e-02" rms="4.8610222339630127e-01" purity="3.9886143803596497e-01" nType="0">
          <Node pos="l" depth="2" NCoef="0" IVar="-1" Cut="0.0000000000000000e+00" cType="1" res="-1.3956441543996334e-02" rms="4.5646139979362488e-01" purity="3.0331900715827942e-01" nType="-99"/>
          <Node pos="r" depth="2" NCoef="0" IVar="-1" Cut="0.0000000000000000e+00" cType="1" res="-1.8783441046252847e-03" rms="4.9520489573478699e-01" purity="4.5917707681655884e-01" nType="-99"/>
        </Node>
        <Node pos="r" depth="1" NCoef="0" IVar="2" Cut="2.6138091087341309e+00" cType="1" res="9.0314082801342010e-02" rms="4.8270976543426514e-01" purity="6.0966116189956665e-01" nType="0">
          <Node pos="l" depth="2" NCoef="0" IVar="-1" Cut="0.0000000000000000e+00" cType="1" res="8.8066132739186287e-03" rms="4.7626835107803345e-01" purity="6.4063358306884766e-01" nType="-99"/>
          <Node pos="r" depth="2" NCoef="0" IVar="-1" Cut="0.0000000000000000e+00" cType="1" res="-6.3251005485653877e-03" rms="4.8947378993034363e-01" purity="4.0779936313629150e-01" nType="-99"/>
        </Node>
      </Node>
    </BinaryTree>
    <BinaryTree type="DecisionTree" boostWeight="1.0000000000000000e+00" itree="8">
      <Node pos="s" depth="0" NCoef="0" IVar="6" Cut="9.5039868354797363e-01" cType="1" res="7.1547110565006733e-04" rms="4.9081847071647644e-01" purity="4.9990531802177429e-01" nType="0">
        <Node pos="l" depth="1" NCoef="0" IVar="7" Cut="7.0842927694320679e-01" cType="1" res="-6.1503320932388306e-02" rms="4.8912787437438965e-01" purity="4.1941505670547485e-01" nType="0">
          <Node pos="l" depth="2" NCoef="0" IVar="-1" Cut="0.0000000000000000e+00" cType="1" res="-7.9085603356361389e-03" rms="4.8163422942161560e-01" purity="3.7303423881530762e-01" nType="-99"/>
          <Node pos="r" depth="2" NCoef="0" IVar="-1" Cut="0.0000000000000000e+00" cType="1" res="5.8097788132727146e-03" rms="4.9098581075668335e-01" purity="5.8609318733215332e-01" nType="-99"/>
        </Node>
        <Node pos="r" depth="1" NCoef="0" IVar="2" Cut="2.4688086509704590e+00" cType="1" res="1.1398275196552277e-01" rms="4.7333061695098877e-01" purity="6.4643520116806030e-01" nType="0">
          <Node pos="l" depth="2" NCoef="0" IVar="-1" Cut="0.0000000000000000e+00" cType="1" res="1.1537292040884495e-02" rms="4.5907658338546753e-01" purity="6.9492858648300171e-01" nType="-99"/>
          <Node pos="r" depth="2" NCoef="0" IVar="-1" Cut="0.0000000000000000e+00" cType="1" res="-2.9411863069981337e-03" rms="4.9583181738853455e-01" purity="4.6079874038696289e-01" nType="-99"/>
        </Node>
      </Node>
    </BinaryTree>
    <BinaryTree type="DecisionTree" boostWeight="1.0000000000000000e+00" itree="9">
      <Node pos="s" depth="0" NCoef="0" IVar="6" Cut="9.6322685480117798e-01" cType="1" res="-2.2632810287177563e-03" rms="4.8996302485466003e-01" purity="4.9723812937736511e-01" nType="0">
        <Node pos="l" depth="1" NCoef="0" IVar="7" Cut="5.2699095010757446e-01" cType="1" res="-4.5769464224576950e-02" rms="4.9008154869079590e-01" purity="4.3985301256179810e-01" nType="0">
          <Node pos="l" depth="2" NCoef="0" IVar="-1" Cut="0.0000000000000000e+00" cType="1" res="-8.5704270750284195e-03" rms="4.7879138588905334e-01" purity="3.6894300580024719e-01" nType="-99"/>
          <Node pos="r" depth="2" NCoef="0" IVar="-1" Cut="0.0000000000000000e+00" cType="1" res="4.7027217224240303e-03" rms="4.9074098467826843e-01" purity="5.6194072961807251e-01" nType="-99"/>
        </Node>
        <Node pos="r" depth="1" NCoef="0" IVar="2" Cut="2.4299740791320801e+00" cType="1" res="1.3369016349315643e-01" rms="4.6400710940361023e-01" purity="6.7656207084655762e-01" nType="0">
          <Node pos="l" depth="2" NCoef="0" IVar="-1" Cut="0.0000000000000000e+00" cType="1" res="1.2606590054929256e-02" rms="4.4807878136634827e-01" purity="7.2128582000732422e-01" nType="-99"/>
          <Node pos="r" depth="2" NCoef="0" IVar="-1" Cut="0.0000000000000000e+00" cType="1" res="1.1929249158129096e-03" rms="4.9739995598793030e-01" purity="5.2227371931076050e-01" nType="-99"/>
        </Node>
      </Node>
    </BinaryTree>
    <BinaryTree type="DecisionTree" boostWeight="1.0000000000000000e+00" itree="10">
      <Node pos="s" depth="0" NCoef="0" IVar="2" Cut="2.6121830940246582e+00" cType="1" res="-3.4489978570491076e-03" rms="4.8919084668159485e-01" purity="4.9565050005912781e-01" nType="0">
        <Node pos="l" depth="1" NCoef="0" IVar="6" Cut="9.3576592206954956e-01" cType="1" res="2.9016299173235893e-02" rms="4.8899874091148376e-01" purity="5.3232687711715698e-01" nType="0">
          <Node pos="l" depth="2" NCoef="0" IVar="-1" Cut="0.0000000000000000e+00" cType="1" res="-3.9262282662093639e-03" rms="4.8982644081115723e-01" purity="4.2414379119873047e-01" nType="-99"/>
          <Node pos="r" depth="2" NCoef="0" IVar="-1" Cut="0.0000000000000000e+00" cType="1" res="8.1282937899231911e-03" rms="4.7543901205062866e-01" purity="6.3930690288543701e-01" nType="-99"/>
        </Node>
        <Node pos="r" depth="1" NCoef="0" IVar="6" Cut="9.4112277030944824e-01" cType="1" res="-2.0543465018272400e-01" rms="4.3945562839508057e-01" purity="2.6746499538421631e-01" nType="0">
          <Node pos="l" depth="2" NCoef="0" IVar="-1" Cut="0.0000000000000000e+00" cType="1" res="-2.0400168374180794e-02" rms="4.1009509563446045e-01" purity="2.1628412604331970e-01" nType="-99"/>
          <Node pos="r" depth="2" NCoef="0" IVar="-1" Cut="0.0000000000000000e+00" cType="1" res="-1.1325985193252563e-02" rms="4.7115617990493774e-01" purity="3.4055680036544800e-01" nType="-99"/>
        </Node>
      </Node>
    </BinaryTree>
    <BinaryTree type="DecisionTree" boostWeight="1.0000000000000000e+00" itree="11">
      <Node pos="s" depth="0" NCoef="0" IVar="6" Cut="9.3759703636169434e-01" cType="1" res="2.6214264798909426e-03" rms="4.8786318302154541e-01" purity="5.0153726339340210e-01" nType="0">
        <Node pos="l" depth="1" NCoef="0" IVar="7" Cut="5.2688449621200562e-01" cType="1" res="-7.2836555540561676e-02" rms="4.8386687040328979e-01" purity="3.9746639132499695e-01" nType="0">
          <Node pos="l" depth="2" NCoef="0" IVar="-1" Cut="0.0000000000000000e+00" cType="1" res="-1.0341864079236984e-02" rms="4.6811228990554810e-01" purity="3.2884401082992554e-01" nType="-99"/>
          <Node pos="r" depth="2" NCoef="0" IVar="-1" Cut="0.0000000000000000e+00" cType="1" res="1.9653798080980778e-03" rms="4.9513441324234009e-01" purity="5.1747912168502808e-01" nType="-99"/>
        </Node>
        <Node pos="r" depth="1" NCoef="0" IVar="7" Cut="5.2684789896011353e-01" cType="1" res="8.5478588938713074e-02" rms="4.7870355844497681e-01" purity="6.1581307649612427e-01" nType="0">
          <Node pos="l" depth="2" NCoef="0" IVar="-1" Cut="0.0000000000000000e+00" cType="1" res="2.0391652360558510e-03" rms="4.8988631367683411e-01" purity="5.5255645513534546e-01" nType="-99"/>
          <Node pos="r" depth="2" NCoef="0" IVar="-1" Cut="0.0000000000000000e+00" cType="1" res="1.3164826668798923e-02" rms="4.4632545113563538e-01" purity="7.1234011650085449e-01" nType="-99"/>
        </Node>
      </Node>
    </BinaryTree>
    <BinaryTree type="DecisionTree" boostWeight="1.0000000000000000e+00" itree="12">
      <Node pos="s" depth="0" NCoef="0" IVar="6" Cut="9.3942713737487793e-01" cType="1" res="2.7204344514757395e-03" rms="4.8782882094383240e-01" purity="5.0147402286529541e-01" nType="0">
        <Node pos="l" depth="1" NCoef="0" IVar="7" Cut="7.0838403701782227e-01" cType="1" res="-6.3151903450489044e-02" rms="4.8545208573341370e-01" purity="4.0487650036811829e-01" nType="0">
          <Node pos="l" depth="2" NCoef="0" IVar="-1" Cut="0.0000000000000000e+00" cType="1" res="-7.7040828764438629e-03" rms="4.7795465588569641e-01" purity="3.5944452881813049e-01" nType="-99"/>
          <Node pos="r" depth="2" NCoef="0" IVar="-1" Cut="0.0000000000000000e+00" cType="1" res="4.6094600111246109e-03" rms="4.9288862943649292e-01" purity="5.7279270887374878e-01" nType="-99"/>
        </Node>
        <Node pos="r" depth="1" NCoef="0" IVar="2" Cut="2.6548495292663574e+00" cType="1" res="8.0306470394134521e-02" rms="4.7913587093353271e-01" purity="6.1524897813796997e-01" nType="0">
          <Node pos="l" depth="2" NCoef="0" IVar="-1" Cut="0.0000000000000000e+00" cType="1" res="7.8468928113579750e-03" rms="4.7391355037689209e-01" purity="6.4514249563217163e-01" nType="-99"/>
          <Node pos="r" depth="2" NCoef="0" IVar="-1" Cut="0.0000000000000000e+00" cType="1" res="-8.1891873851418495e-03" rms="4.8106402158737183e-01" purity="3.7575590610504150e-01" nType="-99"/>
        </Node>
      </Node>
    </BinaryTree>
    <BinaryTree type="DecisionTree" boostWeight="1.0000000000000000e+00" itree="13">
      <Node pos="s" depth="0" NCoef="0" IVar="1" Cut="3.3980612182617188e+02" cType="1" res="1.4623056631535292e-03" rms="4.8719993233680725e-01" purity="5.0013738870620728e-01" nType="0">
        <Node pos="l" depth="1" NCoef="0" IVar="6" Cut="9.6502333879470825e-01" cType="1" res="-9.6332490444183350e-02" rms="4.7590047121047974e-01" purity="3.9365532994270325e-01" nType="0">
          <Node pos="l" depth="2" NCoef="0" IVar="-1" Cut="0.0000000000000000e+00" cType="1" res="-1.0806892067193985e-02" rms="4.6548533439636230e-01" purity="3.3808249235153198e-01" nType="-99"/>
          <Node pos="r" depth="2" NCoef="0" IVar="-1" Cut="0.0000000000000000e+00" cType="1" res="3.7841005250811577e-03" rms="4.8646026849746704e-01" purity="6.0320490598678589e-01" nType="-99"/>
        </Node>
        <Node pos="r" depth="1" NCoef="0" IVar="2" Cut="2.6674299240112305e+00" cType="1" res="5.3854968398809433e-02" rms="4.8510336875915527e-01" purity="5.5718415975570679e-01" nType="0">
          <Node pos="l" depth="2" NCoef="0" IVar="-1" Cut="0.0000000000000000e+00" cType="1" res="5.8894949033856392e-03" rms="4.8244443535804749e-01" purity="5.8480924367904663e-01" nType="-99"/>
          <Node pos="r" depth="2" NCoef="0" IVar="-1" Cut="0.0000000000000000e+00" cType="1" res="-1.1381640098989010e-02" rms="4.6311452984809875e-01" purity="3.2172203063964844e-01" nType="-99"/>
        </Node>
      </Node>
    </BinaryTree>
    <BinaryTree type="DecisionTree" boostWeight="1.0000000000000000e+00" itree="14">
      <Node pos="s" depth="0" NCoef="0" IVar="6" Cut="9.5768827199935913e-01" cType="1" res="1.4523209538310766e-03" rms="4.8605024814605713e-01" purity="5.0061458349227905e-01" nType="0">
        <Node pos="l" depth="1" NCoef="0" IVar="2" Cut="2.5296494960784912e+00" cType="1" res="-4.2624481022357941e-02" rms="4.8731562495231628e-01" purity="4.3315646052360535e-01" nType="0">
          <Node pos="l" depth="2" NCoef="0" IVar="-1" Cut="0.0000000000000000e+00" cType="1" res="-8.4163615247234702e-04" rms="4.9203553795814514e-01" purity="4.7035372257232666e-01" nType="-99"/>
          <Node pos="r" depth="2" NCoef="0" IVar="-1" Cut="0.0000000000000000e+00" cType="1" res="-1.4485214836895466e-02" rms="4.4169536232948303e-01" purity="2.7474784851074219e-01" nType="-99"/>
        </Node>
        <Node pos="r" depth="1" NCoef="0" IVar="2" Cut="2.4204282760620117e+00" cType="1" res="1.1072713881731033e-01" rms="4.6522441506385803e-01" purity="6.6785609722137451e-01" nType="0">
          <Node pos="l" depth="2" NCoef="0" IVar="-1" Cut="0.0000000000000000e+00" cType="1" res="1.0779751464724541e-02" rms="4.5151922106742859e-01" purity="7.1234261989593506e-01" nType="-99"/>
          <Node pos="r" depth="2" NCoef="0" IVar="-1" Cut="0.0000000000000000e+00" cType="1" res="-1.1340433411533013e-04" rms="4.9518200755119324e-01" purity="5.0893771648406982e-01" nType="-99"/>
        </Node>
      </Node>
    </BinaryTree>
    <BinaryTree type="DecisionTree" boostWeight="1.0000000000000000e+00" itree="15">
      <Node pos="s" depth="0" NCoef="0" IVar="6" Cut="9.6319401264190674e-01" cType="1" res="-1.0782979661598802e-03" rms="4.8586297035217285e-01" purity="4.9724423885345459e-01" nType="0">
        <Node pos="l" depth="1" NCoef="0" IVar="1" Cut="3.3434875488281250e+02" cType="1" res="-3.8064431399106979e-02" rms="4.8748704791069031e-01" purity="4.4003126025199890e-01" nType="0">
          <Node pos="l" depth="2" NCoef="0" IVar="-1" Cut="0.0000000000000000e+00" cType="1" res="-1.0340271517634392e-02" rms="4.6477910876274109e-01" purity="3.3618104457855225e-01" nType="-99"/>
          <Node pos="r" depth="2" NCoef="0" IVar="-1" Cut="0.0000000000000000e+00" cType="1" res="5.9710477944463491e-04" rms="4.9224269390106201e-01" purity="4.9238944053649902e-01" nType="-99"/>
        </Node>
        <Node pos="r" depth="1" NCoef="0" IVar="1" Cut="3.2657131958007812e+02" cType="1" res="1.1600445210933685e-01" rms="4.6154072880744934e-01" purity="6.7835688591003418e-01" nType="0">
          <Node pos="l" depth="2" NCoef="0" IVar="-1" Cut="0.0000000000000000e+00" cType="1" res="1.3603690313175321e-03" rms="4.8893073201179504e-01" purity="5.7349437475204468e-01" nType="-99"/>
          <Node pos="r" depth="2" NCoef="0" IVar="-1" Cut="0.0000000000000000e+00" cType="1" res="1.1492626741528511e-02" rms="4.4593751430511475e-01" purity="7.1621441841125488e-01" nType="-99"/>
        </Node>
      </Node>
    </BinaryTree>
    <BinaryTree type="DecisionTree" boostWeight="1.0000000000000000e+00" itree="16">
      <Node pos="s" depth="0" NCoef="0" IVar="6" Cut="9.5769983530044556e-01" cType="1" res="5.6887901155278087e-04" rms="4.8477417230606079e-01" purity="4.9845576286315918e-01" nType="0">
        <Node pos="l" depth="1" NCoef="0" IVar="2" Cut="2.5035586357116699e+00" cType="1" res="-4.2259708046913147e-02" rms="4.8636794090270996e-01" purity="4.2948096990585327e-01" nType="0">
          <Node pos="l" depth="2" NCoef="0" IVar="-1" Cut="0.0000000000000000e+00" cType="1" res="-8.6797965923324227e-04" rms="4.9171018600463867e-01" purity="4.6779552102088928e-01" nType="-99"/>
          <Node pos="r" depth="2" NCoef="0" IVar="-1" Cut="0.0000000000000000e+00" cType="1" res="-1.3132865540683270e-02" rms="4.4580340385437012e-01" purity="2.8313875198364258e-01" nType="-99"/>
        </Node>
        <Node pos="r" depth="1" NCoef="0" IVar="1" Cut="3.4816931152343750e+02" cType="1" res="1.0800232738256454e-01" rms="4.6365964412689209e-01" purity="6.7147570848464966e-01" nType="0">
          <Node pos="l" depth="2" NCoef="0" IVar="-1" Cut="0.0000000000000000e+00" cType="1" res="2.4824070278555155e-03" rms="4.8639807105064392e-01" purity="5.8740842342376709e-01" nType="-99"/>
          <Node pos="r" depth="2" NCoef="0" IVar="-1" Cut="0.0000000000000000e+00" cType="1" res="1.1125955730676651e-02" rms="4.4684788584709167e-01" purity="7.1398782730102539e-01" nType="-99"/>
        </Node>
      </Node>
    </BinaryTree>
    <BinaryTree type="DecisionTree" boostWeight="1.0000000000000000e+00" itree="17">
      <Node pos="s" depth="0" NCoef="0" IVar="6" Cut="9.6136057376861572e-01" cType="1" res="-1.6057858010753989e-03" rms="4.8429101705551147e-01" purity="4.9649554491043091e-01" nType="0">
        <Node pos="l" depth="1" NCoef="0" IVar="1" Cut="3.1792211914062500e+02" cType="1" res="-3.9503905922174454e-02" rms="4.8620012402534485e-01" purity="4.3363356590270996e-01" nType="0">
          <Node pos="l" depth="2" NCoef="0" IVar="-1" Cut="0.0000000000000000e+00" cType="1" res="-1.1121074669063091e-02" rms="4.5804339647293091e-01" purity="3.1747132539749146e-01" nType="-99"/>
          <Node pos="r" depth="2" NCoef="0" IVar="-1" Cut="0.0000000000000000e+00" cType="1" res="-9.2344504082575440e-05" rms="4.9146872758865356e-01" purity="4.7898691892623901e-01" nType="-99"/>
        </Node>
        <Node pos="r" depth="1" NCoef="0" IVar="7" Cut="7.0842987298965454e-01" cType="1" res="1.0734489560127258e-01" rms="4.6174889802932739e-01" purity="6.7721307277679443e-01" nType="0">
          <Node pos="l" depth="2" NCoef="0" IVar="-1" Cut="0.0000000000000000e+00" cType="1" res="5.6777363643050194e-03" rms="4.7345376014709473e-01" purity="6.4205563068389893e-01" nType="-99"/>
          <Node pos="r" depth="2" NCoef="0" IVar="-1" Cut="0.0000000000000000e+00" cType="1" res="1.5390175394713879e-02" rms="4.1133075952529907e-01" purity="7.7820324897766113e-01" nType="-99"/>
        </Node>
      </Node>
    </BinaryTree>
    <BinaryTree type="DecisionTree" boostWeight="1.0000000000000000e+00" itree="18">
      <Node pos="s" depth="0" NCoef="0" IVar="7" Cut="5.2699095010757446e-01" cType="1" res="-6.6438486101105809e-04" rms="4.8362296819686890e-01" purity="4.9844303727149963e-01" nType="0">
        <Node pos="l" depth="1" NCoef="0" IVar="6" Cut="9.7238165140151978e-01" cType="1" res="-5.2897974848747253e-02" rms="4.8089903593063354e-01" purity="4.3290299177169800e-01" nType="0">
          <Node pos="l" depth="2" NCoef="0" IVar="-1" Cut="0.0000000000000000e+00" cType="1" res="-6.5346956253051758e-03" rms="4.7823840379714966e-01" purity="3.8667175173759460e-01" nType="-99"/>
          <Node pos="r" depth="2" NCoef="0" IVar="-1" Cut="0.0000000000000000e+00" cType="1" res="7.1222935803234577e-03" rms="4.6757727861404419e-01" purity="6.6463047266006470e-01" nType="-99"/>
        </Node>
        <Node pos="r" depth="1" NCoef="0" IVar="2" Cut="2.5875108242034912e+00" cType="1" res="8.4155693650245667e-02" rms="4.7595444321632385e-01" purity="6.0487085580825806e-01" nType="0">
          <Node pos="l" depth="2" NCoef="0" IVar="-1" Cut="0.0000000000000000e+00" cType="1" res="8.5271699354052544e-03" rms="4.6937045454978943e-01" purity="6.4077430963516235e-01" nType="-99"/>
          <Node pos="r" depth="2" NCoef="0" IVar="-1" Cut="0.0000000000000000e+00" cType="1" res="-6.3488646410405636e-03" rms="4.8156830668449402e-01" purity="3.9181789755821228e-01" nType="-99"/>
        </Node>
      </Node>
    </BinaryTree>
    <BinaryTree type="DecisionTree" boostWeight="1.0000000000000000e+00" itree="19">
      <Node pos="s" depth="0" NCoef="0" IVar="7" Cut="7.0849078893661499e-01" cType="1" res="-2.1654888987541199e-03" rms="4.8236602544784546e-01" purity="4.9674388766288757e-01" nType="0">
        <Node pos="l" depth="1" NCoef="0" IVar="6" Cut="9.3211615085601807e-01" cType="1" res="-3.9477165788412094e-02" rms="4.8157137632369995e-01" purity="4.4770044088363647e-01" nType="0">
          <Node pos="l" depth="2" NCoef="0" IVar="-1" Cut="0.0000000000000000e+00" cType="1" res="-8.6249904707074165e-03" rms="4.6779522299766541e-01" purity="3.3414316177368164e-01" nType="-99"/>
          <Node pos="r" depth="2" NCoef="0" IVar="-1" Cut="0.0000000000000000e+00" cType="1" res="1.6321107978001237e-03" rms="4.8570880293846130e-01" purity="5.4960197210311890e-01" nType="-99"/>
        </Node>
        <Node pos="r" depth="1" NCoef="0" IVar="6" Cut="9.3566662073135376e-01" cType="1" res="1.2084411084651947e-01" rms="4.6419960260391235e-01" purity="6.5843081474304199e-01" nType="0">
          <Node pos="l" depth="2" NCoef="0" IVar="-1" Cut="0.0000000000000000e+00" cType="1" res="4.1324351914227009e-03" rms="4.9132552742958069e-01" purity="5.6359386444091797e-01" nType="-99"/>
          <Node pos="r" depth="2" NCoef="0" IVar="-1" Cut="0.0000000000000000e+00" cType="1" res="1.3617607764899731e-02" rms="4.3020606040954590e-01" purity="7.4243175983428955e-01" nType="-99"/>
        </Node>
      </Node>
    </BinaryTree>
    <BinaryTree type="DecisionTree" boostWeight="1.0000000000000000e+00" itree="20">
      <Node pos="s" depth="0" NCoef="0" IVar="7" Cut="7.0845341682434082e-01" cType="1" res="5.9482464566826820e-03" rms="4.8222568631172180e-01" purity="5.0389617681503296e-01" nType="0">
        <Node pos="l" depth="1" NCoef="0" IVar="6" Cut="9.3208652734756470e-01" cType="1" res="-2.9448935762047768e-02" rms="4.8234832286834717e-01" purity="4.5552954077720642e-01" nType="0">
          <Node pos="l" depth="2" NCoef="0" IVar="-1" Cut="0.0000000000000000e+00" cType="1" res="-7.7125825919210911e-03" rms="4.7059857845306396e-01" purity="3.4136760234832764e-01" nType="-99"/>
          <Node pos="r" depth="2" NCoef="0" IVar="-1" Cut="0.0000000000000000e+00" cType="1" res="2.3284484632313251e-03" rms="4.8505324125289917e-01" purity="5.5829674005508423e-01" nType="-99"/>
        </Node>
        <Node pos="r" depth="1" NCoef="0" IVar="2" Cut="2.3109824657440186e+00" cType="1" res="1.2301725149154663e-01" rms="4.6292692422866821e-01" purity="6.6385912895202637e-01" nType="0">
          <Node pos="l" depth="2" NCoef="0" IVar="-1" Cut="0.0000000000000000e+00" cType="1" res="1.2435901910066605e-02" rms="4.4418227672576904e-01" purity="7.1720916032791138e-01" nType="-99"/>
          <Node pos="r" depth="2" NCoef="0" IVar="-1" Cut="0.0000000000000000e+00" cType="1" res="3.6787691060453653e-03" rms="4.8612934350967407e-01" purity="5.6725811958312988e-01" nType="-99"/>
        </Node>
      </Node>
    </BinaryTree>
    <BinaryTree type="DecisionTree" boostWeight="1.0000000000000000e+00" itree="21">
      <Node pos="s" depth="0" NCoef="0" IVar="6" Cut="9.6320205926895142e-01" cType="1" res="1.9149839645251632e-03" rms="4.8171961307525635e-01" purity="4.9969473481178284e-01" nType="0">
        <Node pos="l" depth="1" NCoef="0" IVar="7" Cut="7.0845341682434082e-01" cType="1" res="-3.2777365297079086e-02" rms="4.8489606380462646e-01" purity="4.3791544437408447e-01" nType="0">
          <Node pos="l" depth="2" NCoef="0" IVar="-1" Cut="0.0000000000000000e+00" cType="1" res="-5.1205204799771309e-03" rms="4.8117780685424805e-01" purity="3.9060112833976746e-01" nType="-99"/>
          <Node pos="r" depth="2" NCoef="0" IVar="-1" Cut="0.0000000000000000e+00" cType="1" res="6.0061803087592125e-03" rms="4.8161557316780090e-01" purity="6.0626161098480225e-01" nType="-99"/>
        </Node>
        <Node pos="r" depth="1" NCoef="0" IVar="1" Cut="3.5532296752929688e+02" cType="1" res="1.0907772183418274e-01" rms="4.5537662506103516e-01" purity="6.9052767753601074e-01" nType="0">
          <Node pos="l" depth="2" NCoef="0" IVar="-1" Cut="0.0000000000000000e+00" cType="1" res="2.5432084221392870e-03" rms="4.8160451650619507e-01" purity="6.0357207059860229e-01" nType="-99"/>
          <Node pos="r" depth="2" NCoef="0" IVar="-1" Cut="0.0000000000000000e+00" cType="1" res="1.1634192429482937e-02" rms="4.3421226739883423e-01" purity="7.3916292190551758e-01" nType="-99"/>
        </Node>
      </Node>
    </BinaryTree>
    <BinaryTree type="DecisionTree" boostWeight="1.0000000000000000e+00" itree="22">
      <Node pos="s" depth="0" NCoef="0" IVar="1" Cut="3.4685720825195312e+02" cType="1" res="-6.4868159824982285e-04" rms="4.8178613185882568e-01" purity="4.9766138195991516e-01" nType="0">
        <Node pos="l" depth="1" NCoef="0" IVar="6" Cut="9.4097906351089478e-01" cType="1" res="-7.8100115060806274e-02" rms="4.7182974219322205e-01" purity="4.0114888548851013e-01" nType="0">
          <Node pos="l" depth="2" NCoef="0" IVar="-1" Cut="0.0000000000000000e+00" cType="1" res="-1.1229602620005608e-02" rms="4.5124930143356323e-01" purity="2.9878947138786316e-01" nType="-99"/>
          <Node pos="r" depth="2" NCoef="0" IVar="-1" Cut="0.0000000000000000e+00" cType="1" res="1.4906511933077127e-04" rms="4.8702603578567505e-01" purity="5.3964942693710327e-01" nType="-99"/>
        </Node>
        <Node pos="r" depth="1" NCoef="0" IVar="2" Cut="2.3455977439880371e+00" cType="1" res="4.4846531003713608e-02" rms="4.8176920413970947e-01" purity="5.5435311794281006e-01" nType="0">
          <Node pos="l" depth="2" NCoef="0" IVar="-1" Cut="0.0000000000000000e+00" cType="1" res="6.6345864906907082e-03" rms="4.7506758570671082e-01" purity="6.0721373558044434e-01" nType="-99"/>
          <Node pos="r" depth="2" NCoef="0" IVar="-1" Cut="0.0000000000000000e+00" cType="1" res="-3.4906640648841858e-03" rms="4.8415523767471313e-01" purity="4.4002911448478699e-01" nType="-99"/>
        </Node>
      </Node>
    </BinaryTree>
    <BinaryTree type="DecisionTree" boostWeight="1.0000000000000000e+00" itree="23">
      <Node pos="s" depth="0" NCoef="0" IVar="2" Cut="2.4562401771545410e+00" cType="1" res="4.0921005420386791e-03" rms="4.8104792833328247e-01" purity="5.0231975317001343e-01" nType="0">
        <Node pos="l" depth="1" NCoef="0" IVar="7" Cut="7.0849078893661499e-01" cType="1" res="3.7706710398197174e-02" rms="4.8085424304008484e-01" purity="5.4865956306457520e-01" nType="0">
          <Node pos="l" depth="2" NCoef="0" IVar="-1" Cut="0.0000000000000000e+00" cType="1" res="4.2132777161896229e-04" rms="4.8587775230407715e-01" purity="5.0074166059494019e-01" nType="-99"/>
          <Node pos="r" depth="2" NCoef="0" IVar="-1" Cut="0.0000000000000000e+00" cType="1" res="1.1006436310708523e-02" rms="4.4754564762115479e-01" purity="7.0696842670440674e-01" nType="-99"/>
        </Node>
        <Node pos="r" depth="1" NCoef="0" IVar="5" Cut="4.4778704643249512e-01" cType="1" res="-1.0761217772960663e-01" rms="4.6453571319580078e-01" purity="3.4832844138145447e-01" nType="0">
          <Node pos="l" depth="2" NCoef="0" IVar="-1" Cut="0.0000000000000000e+00" cType="1" res="-4.4642444700002670e-03" rms="4.7810834646224976e-01" purity="4.0365305542945862e-01" nType="-99"/>
          <Node pos="r" depth="2" NCoef="0" IVar="-1" Cut="0.0000000000000000e+00" cType="1" res="-1.4347230084240437e-02" rms="4.3710288405418396e-01" purity="2.7616506814956665e-01" nType="-99"/>
        </Node>
      </Node>
    </BinaryTree>
    <BinaryTree type="DecisionTree" boostWeight="1.0000000000000000e+00" itree="24">
      <Node pos="s" depth="0" NCoef="0" IVar="1" Cut="2.7713256835937500e+02" cType="1" res="7.2385976091027260e-03" rms="4.8108458518981934e-01" purity="5.0568449497222900e-01" nType="0">
        <Node pos="l" depth="1" NCoef="0" IVar="5" Cut="3.2310405373573303e-01" cType="1" res="-1.4575344324111938e-01" rms="4.5204827189445496e-01" purity="3.2029581069946289e-01" nType="0">
          <Node pos="l" depth="2" NCoef="0" IVar="-1" Cut="0.0000000000000000e+00" cType="1" res="-6.1388066969811916e-03" rms="4.7471314668655396e-01" purity="3.9850789308547974e-01" nType="-99"/>
          <Node pos="r" depth="2" NCoef="0" IVar="-1" Cut="0.0000000000000000e+00" cType="1" res="-1.9639989361166954e-02" rms="4.0341445803642273e-01" purity="2.1883594989776611e-01" nType="-99"/>
        </Node>
        <Node pos="r" depth="1" NCoef="0" IVar="2" Cut="2.6304099559783936e+00" cType="1" res="2.8844008222222328e-02" rms="4.8114076256752014e-01" purity="5.3186488151550293e-01" nType="0">
          <Node pos="l" depth="2" NCoef="0" IVar="-1" Cut="0.0000000000000000e+00" cType="1" res="3.8594489451497793e-03" rms="4.8077052831649780e-01" purity="5.6175738573074341e-01" nType="-99"/>
          <Node pos="r" depth="2" NCoef="0" IVar="-1" Cut="0.0000000000000000e+00" cType="1" res="-9.5817558467388153e-03" rms="4.5775222778320312e-01" purity="3.2071474194526672e-01" nType="-99"/>
        </Node>
      </Node>
    </BinaryTree>
    <BinaryTree type="DecisionTree" boostWeight="1.0000000000000000e+00" itree="25">
      <Node pos="s" depth="0" NCoef="0" IVar="1" Cut="3.1084487915039062e+02" cType="1" res="5.6971372105181217e-03" rms="4.8087832331657410e-01" purity="5.0393557548522949e-01" nType="0">
        <Node pos="l" depth="1" NCoef="0" IVar="5" Cut="3.4510967135429382e-01" cType="1" res="-9.3664333224296570e-02" rms="4.6645623445510864e-01" purity="3.7300416827201843e-01" nType="0">
          <Node pos="l" depth="2" NCoef="0" IVar="-1" Cut="0.0000000000000000e+00" cType="1" res="-3.4589020069688559e-03" rms="4.7931745648384094e-01" purity="4.3117672204971313e-01" nType="-99"/>
          <Node pos="r" depth="2" NCoef="0" IVar="-1" Cut="0.0000000000000000e+00" cType="1" res="-1.4190000481903553e-02" rms="4.3421864509582520e-01" purity="2.8245764970779419e-01" nType="-99"/>
        </Node>
        <Node pos="r" depth="1" NCoef="0" IVar="2" Cut="2.4938676357269287e+00" cType="1" res="3.7765689194202423e-02" rms="4.8108077049255371e-01" purity="5.4619318246841431e-01" nType="0">
          <Node pos="l" depth="2" NCoef="0" IVar="-1" Cut="0.0000000000000000e+00" cType="1" res="4.9597164615988731e-03" rms="4.7861403226852417e-01" purity="5.8536535501480103e-01" nType="-99"/>
          <Node pos="r" depth="2" NCoef="0" IVar="-1" Cut="0.0000000000000000e+00" cType="1" res="-5.8987741358578205e-03" rms="4.7561982274055481e-01" purity="3.7992388010025024e-01" nType="-99"/>
        </Node>
      </Node>
    </BinaryTree>
    <BinaryTree type="DecisionTree" boostWeight="1.0000000000000000e+00" itree="26">
      <Node pos="s" depth="0" NCoef="0" IVar="1" Cut="2.8309478759765625e+02" cType="1" res="-4.5173214748501778e-03" rms="4.7957879304885864e-01" purity="4.9385964870452881e-01" nType="0">
        <Node pos="l" depth="1" NCoef="0" IVar="5" Cut="2.0536743104457855e-01" cType="1" res="-1.3325613737106323e-01" rms="4.5098373293876648e-01" purity="3.2424718141555786e-01" nType="0">
          <Node pos="l" depth="2" NCoef="0" IVar="-1" Cut="0.0000000000000000e+00" cType="1" res="-4.6725748106837273e-03" rms="4.7412747144699097e-01" purity="4.1206833720207214e-01" nType="-99"/>
          <Node pos="r" depth="2" NCoef="0" IVar="-1" Cut="0.0000000000000000e+00" cType="1" res="-1.4763728715479374e-02" rms="4.3021342158317566e-01" purity="2.7141994237899780e-01" nType="-99"/>
        </Node>
        <Node pos="r" depth="1" NCoef="0" IVar="7" Cut="5.2699095010757446e-01" cType="1" res="1.7616869881749153e-02" rms="4.8086521029472351e-01" purity="5.2302128076553345e-01" nType="0">
          <Node pos="l" depth="2" NCoef="0" IVar="-1" Cut="0.0000000000000000e+00" cType="1" res="-1.7832646844908595e-03" rms="4.8279443383216858e-01" purity="4.6296590566635132e-01" nType="-99"/>
          <Node pos="r" depth="2" NCoef="0" IVar="-1" Cut="0.0000000000000000e+00" cType="1" res="6.4514190889894962e-03" rms="4.7030147910118103e-01" purity="6.2174248695373535e-01" nType="-99"/>
        </Node>
      </Node>
    </BinaryTree>
    <BinaryTree type="DecisionTree" boostWeight="1.0000000000000000e+00" itree="27">
      <Node pos="s" depth="0" NCoef="0" IVar="7" Cut="5.2695417404174805e-01" cType="1" res="4.1929949074983597e-03" rms="4.7905835509300232e-01" purity="5.0327444076538086e-01" nType="0">
        <Node pos="l" depth="1" NCoef="0" IVar="6" Cut="9.3025827407836914e-01" cType="1" res="-3.7333488464355469e-02" rms="4.7835695743560791e-01" purity="4.4050616025924683e-01" nType="0">
          <Node pos="l" depth="2" NCoef="0" IVar="-1" Cut="0.0000000000000000e+00" cType="1" res="-8.0746542662382126e-03" rms="4.6290642023086548e-01" purity="3.2527378201484680e-01" nType="-99"/>
          <Node pos="r" depth="2" NCoef="0" IVar="-1" Cut="0.0000000000000000e+00" cType="1" res="1.0299513814970851e-03" rms="4.8488646745681763e-01" purity="5.3515338897705078e-01" nType="-99"/>
        </Node>
        <Node pos="r" depth="1" NCoef="0" IVar="2" Cut="2.5969743728637695e+00" cType="1" res="7.3600560426712036e-02" rms="4.7214365005493164e-01" purity="6.0818552970886230e-01" nType="0">
          <Node pos="l" depth="2" NCoef="0" IVar="-1" Cut="0.0000000000000000e+00" cType="1" res="7.3413481004536152e-03" rms="4.6725553274154663e-01" purity="6.4240032434463501e-01" nType="-99"/>
          <Node pos="r" depth="2" NCoef="0" IVar="-1" Cut="0.0000000000000000e+00" cType="1" res="-4.4799838215112686e-03" rms="4.8041695356369019e-01" purity="4.0272894501686096e-01" nType="-99"/>
        </Node>
      </Node>
    </BinaryTree>
    <BinaryTree type="DecisionTree" boostWeight="1.0000000000000000e+00" itree="28">
      <Node pos="s" depth="0" NCoef="0" IVar="1" Cut="2.9351879882812500e+02" cType="1" res="3.5407240502536297e-03" rms="4.7848424315452576e-01" purity="5.0237768888473511e-01" nType="0">
        <Node pos="l" depth="1" NCoef="0" IVar="6" Cut="9.5201402902603149e-01" cType="1" res="-1.1176081001758575e-01" rms="4.5601847767829895e-01" purity="3.4315896034240723e-01" nType="0">
          <Node pos="l" depth="2" NCoef="0" IVar="-1" Cut="0.0000000000000000e+00" cType="1" res="-1.2371301651000977e-02" rms="4.3618321418762207e-01" purity="2.6980724930763245e-01" nType="-99"/>
          <Node pos="r" depth="2" NCoef="0" IVar="-1" Cut="0.0000000000000000e+00" cType="1" res="-1.9567641429603100e-03" rms="4.8903411626815796e-01" purity="5.1686304807662964e-01" nType="-99"/>
        </Node>
        <Node pos="r" depth="1" NCoef="0" IVar="7" Cut="5.2699095010757446e-01" cType="1" res="2.8090834617614746e-02" rms="4.7956639528274536e-01" purity="5.3627872467041016e-01" nType="0">
          <Node pos="l" depth="2" NCoef="0" IVar="-1" Cut="0.0000000000000000e+00" cType="1" res="-1.2635707389563322e-03" rms="4.8393845558166504e-01" purity="4.6822062134742737e-01" nType="-99"/>
          <Node pos="r" depth="2" NCoef="0" IVar="-1" Cut="0.0000000000000000e+00" cType="1" res="7.5120222754776478e-03" rms="4.6422308683395386e-01" purity="6.4337092638015747e-01" nType="-99"/>
        </Node>
      </Node>
    </BinaryTree>
    <BinaryTree type="DecisionTree" boostWeight="1.0000000000000000e+00" itree="29">
      <Node pos="s" depth="0" NCoef="0" IVar="6" Cut="9.5224303007125854e-01" cType="1" res="-1.2670452706515789e-03" rms="4.7702637314796448e-01" purity="4.9770087003707886e-01" nType="0">
        <Node pos="l" depth="1" NCoef="0" IVar="5" Cut="2.6359161734580994e-01" cType="1" res="-4.2116641998291016e-02" rms="4.7884023189544678e-01" purity="4.1755869984626770e-01" nType="0">
          <Node pos="l" depth="2" NCoef="0" IVar="-1" Cut="0.0000000000000000e+00" cType="1" res="1.4364721719175577e-03" rms="4.8873394727706909e-01" purity="4.8611924052238464e-01" nType="-99"/>
          <Node pos="r" depth="2" NCoef="0" IVar="-1" Cut="0.0000000000000000e+00" cType="1" res="-7.2200866416096687e-03" rms="4.6553692221641541e-01" purity="3.6396017670631409e-01" nType="-99"/>
        </Node>
        <Node pos="r" depth="1" NCoef="0" IVar="5" Cut="3.9490962028503418e-01" cType="1" res="7.8922942280769348e-02" rms="4.6308144927024841e-01" purity="6.5502423048019409e-01" nType="0">
          <Node pos="l" depth="2" NCoef="0" IVar="-1" Cut="0.0000000000000000e+00" cType="1" res="9.0521089732646942e-03" rms="4.4954273104667664e-01" purity="6.9920819997787476e-01" nType="-99"/>
          <Node pos="r" depth="2" NCoef="0" IVar="-1" Cut="0.0000000000000000e+00" cType="1" res="3.3632801205385476e-05" rms="4.8028668761253357e-01" purity="5.6422710418701172e-01" nType="-99"/>
        </Node>
      </Node>
    </BinaryTree>
    <BinaryTree type="DecisionTree" boostWeight="1.0000000000000000e+00" itree="30">
      <Node pos="s" depth="0" NCoef="0" IVar="6" Cut="9.2295485734939575e-01" cType="1" res="7.3839505203068256e-03" rms="4.7675499320030212e-01" purity="5.0646871328353882e-01" nType="0">
        <Node pos="l" depth="1" NCoef="0" IVar="1" Cut="5.3854260253906250e+02" cType="1" res="-6.8106614053249359e-02" rms="4.7182235121726990e-01" purity="3.7638410925865173e-01" nType="0">
          <Node pos="l" depth="2" NCoef="0" IVar="-1" Cut="0.0000000000000000e+00" cType="1" res="-7.4404668994247913e-03" rms="4.6478834748268127e-01" purity="3.4810280799865723e-01" nType="-99"/>
          <Node pos="r" depth="2" NCoef="0" IVar="-1" Cut="0.0000000000000000e+00" cType="1" res="2.5987206026911736e-03" rms="4.8851141333580017e-01" purity="4.9936836957931519e-01" nType="-99"/>
        </Node>
        <Node pos="r" depth="1" NCoef="0" IVar="2" Cut="2.4167253971099854e+00" cType="1" res="5.0560355186462402e-02" rms="4.7418123483657837e-01" purity="5.8086979389190674e-01" nType="0">
          <Node pos="l" depth="2" NCoef="0" IVar="-1" Cut="0.0000000000000000e+00" cType="1" res="6.2231384217739105e-03" rms="4.6747455000877380e-01" purity="6.2931621074676514e-01" nType="-99"/>
          <Node pos="r" depth="2" NCoef="0" IVar="-1" Cut="0.0000000000000000e+00" cType="1" res="-2.8748912736773491e-03" rms="4.8304167389869690e-01" purity="4.3845376372337341e-01" nType="-99"/>
        </Node>
      </Node>
    </BinaryTree>
    <BinaryTree type="DecisionTree" boostWeight="1.0000000000000000e+00" itree="31">
      <Node pos="s" depth="0" NCoef="0" IVar="1" Cut="3.1016519165039062e+02" cType="1" res="-2.7186784427613020e-03" rms="4.7819828987121582e-01" purity="4.9526891112327576e-01" nType="0">
        <Node pos="l" depth="1" NCoef="0" IVar="5" Cut="4.2960256338119507e-01" cType="1" res="-9.4853162765502930e-02" rms="4.6006831526756287e-01" purity="3.6122080683708191e-01" nType="0">
          <Node pos="l" depth="2" NCoef="0" IVar="-1" Cut="0.0000000000000000e+00" cType="1" res="-5.1360335201025009e-03" rms="4.7119417786598206e-01" purity="4.0064412355422974e-01" nType="-99"/>
          <Node pos="r" depth="2" NCoef="0" IVar="-1" Cut="0.0000000000000000e+00" cType="1" res="-1.6750834882259369e-02" rms="4.0444391965866089e-01" purity="2.3139591515064240e-01" nType="-99"/>
        </Node>
        <Node pos="r" depth="1" NCoef="0" IVar="7" Cut="7.0843058824539185e-01" cType="1" res="2.6186108589172363e-02" rms="4.8011633753776550e-01" purity="5.3732299804687500e-01" nType="0">
          <Node pos="l" depth="2" NCoef="0" IVar="-1" Cut="0.0000000000000000e+00" cType="1" res="-8.5180137830320746e-05" rms="4.8440456390380859e-01" purity="4.9131101369857788e-01" nType="-99"/>
          <Node pos="r" depth="2" NCoef="0" IVar="-1" Cut="0.0000000000000000e+00" cType="1" res="8.7368367239832878e-03" rms="4.5535174012184143e-01" purity="6.8427842855453491e-01" nType="-99"/>
        </Node>
      </Node>
    </BinaryTree>
    <BinaryTree type="DecisionTree" boostWeight="1.0000000000000000e+00" itree="32">
      <Node pos="s" depth="0" NCoef="0" IVar="2" Cut="2.4593982696533203e+00" cType="1" res="-2.1357466466724873e-03" rms="4.7632160782814026e-01" purity="4.9591496586799622e-01" nType="0">
        <Node pos="l" depth="1" NCoef="0" IVar="1" Cut="3.0046563720703125e+02" cType="1" res="2.8447482734918594e-02" rms="4.7764104604721069e-01" purity="5.4319208860397339e-01" nType="0">
          <Node pos="l" depth="2" NCoef="0" IVar="-1" Cut="0.0000000000000000e+00" cType="1" res="-6.8482812494039536e-03" rms="4.6260350942611694e-01" purity="3.7831652164459229e-01" nType="-99"/>
          <Node pos="r" depth="2" NCoef="0" IVar="-1" Cut="0.0000000000000000e+00" cType="1" res="4.3667852878570557e-03" rms="4.7722235321998596e-01" purity="5.8342641592025757e-01" nType="-99"/>
        </Node>
        <Node pos="r" depth="1" NCoef="0" IVar="5" Cut="3.5655739903450012e-01" cType="1" res="-1.0801761597394943e-01" rms="4.5615291595458984e-01" purity="3.3223736286163330e-01" nType="0">
          <Node pos="l" depth="2" NCoef="0" IVar="-1" Cut="0.0000000000000000e+00" cType="1" res="-2.8403934556990862e-03" rms="4.7801730036735535e-01" purity="4.1648057103157043e-01" nType="-99"/>
          <Node pos="r" depth="2" NCoef="0" IVar="-1" Cut="0.0000000000000000e+00" cType="1" res="-1.2944497168064117e-02" rms="4.3455281853675842e-01" purity="2.7669239044189453e-01" nType="-99"/>
        </Node>
      </Node>
    </BinaryTree>
    <BinaryTree type="DecisionTree" boostWeight="1.0000000000000000e+00" itree="33">
      <Node pos="s" depth="0" NCoef="0" IVar="2" Cut="2.7831382751464844e+00" cType="1" res="1.9111785804852843e-03" rms="4.7601923346519470e-01" purity="5.0130647420883179e-01" nType="0">
        <Node pos="l" depth="1" NCoef="0" IVar="6" Cut="9.3027418851852417e-01" cType="1" res="1.6371160745620728e-02" rms="4.7776120901107788e-01" purity="5.2304077148437500e-01" nType="0">
          <Node pos="l" depth="2" NCoef="0" IVar="-1" Cut="0.0000000000000000e+00" cType="1" res="-3.2389722764492035e-03" rms="4.7903212904930115e-01" purity="4.0773275494575500e-01" nType="-99"/>
          <Node pos="r" depth="2" NCoef="0" IVar="-1" Cut="0.0000000000000000e+00" cType="1" res="4.8276055604219437e-03" rms="4.7183662652969360e-01" purity="6.1559391021728516e-01" nType="-99"/>
        </Node>
        <Node pos="r" depth="1" NCoef="0" IVar="-1" Cut="0.0000000000000000e+00" cType="1" res="-1.4522133395075798e-02" rms="4.1684630513191223e-01" purity="2.3962019383907318e-01" nType="-99"/>
      </Node>
    </BinaryTree>
    <BinaryTree type="DecisionTree" boostWeight="1.0000000000000000e+00" itree="34">
      <Node pos="s" depth="0" NCoef="0" IVar="7" Cut="5.2699095010757446e-01" cType="1" res="5.0806831568479538e-03" rms="4.7625145316123962e-01" purity="5.0452917814254761e-01" nType="0">
        <Node pos="l" depth="1" NCoef="0" IVar="1" Cut="3.3844580078125000e+02" cType="1" res="-3.6136664450168610e-02" rms="4.7703593969345093e-01" purity="4.3717652559280396e-01" nType="0">
          <Node pos="l" depth="2" NCoef="0" IVar="-1" Cut="0.0000000000000000e+00" cType="1" res="-8.4157744422554970e-03" rms="4.5774865150451660e-01" purity="3.3849167823791504e-01" nType="-99"/>
          <Node pos="r" depth="2" NCoef="0" IVar="-1" Cut="0.0000000000000000e+00" cType="1" res="2.0906451027258299e-05" rms="4.8358163237571716e-01" purity="4.9192020297050476e-01" nType="-99"/>
        </Node>
        <Node pos="r" depth="1" NCoef="0" IVar="2" Cut="2.5595293045043945e+00" cType="1" res="7.1603424847126007e-02" rms="4.6737700700759888e-01" purity="6.1323302984237671e-01" nType="0">
          <Node pos="l" depth="2" NCoef="0" IVar="-1" Cut="0.0000000000000000e+00" cType="1" res="7.2471895255148411e-03" rms="4.6242001652717590e-01" purity="6.5066158771514893e-01" nType="-99"/>
          <Node pos="r" depth="2" NCoef="0" IVar="-1" Cut="0.0000000000000000e+00" cType="1" res="-3.9646388031542301e-03" rms="4.7626033425331116e-01" purity="4.0453061461448669e-01" nType="-99"/>
        </Node>
      </Node>
    </BinaryTree>
    <BinaryTree type="DecisionTree" boostWeight="1.0000000000000000e+00" itree="35">
      <Node pos="s" depth="0" NCoef="0" IVar="5" Cut="2.6359161734580994e-01" cType="1" res="-3.6056567914783955e-03" rms="4.7672384977340698e-01" purity="4.9445128440856934e-01" nType="0">
        <Node pos="l" depth="1" NCoef="0" IVar="1" Cut="2.8652801513671875e+02" cType="1" res="5.3473081439733505e-02" rms="4.7551521658897400e-01" purity="5.6524425745010376e-01" nType="0">
          <Node pos="l" depth="2" NCoef="0" IVar="-1" Cut="0.0000000000000000e+00" cType="1" res="-6.0711908154189587e-03" rms="4.7267562150955200e-01" purity="3.8255643844604492e-01" nType="-99"/>
          <Node pos="r" depth="2" NCoef="0" IVar="-1" Cut="0.0000000000000000e+00" cType="1" res="6.1427168548107147e-03" rms="4.7199058532714844e-01" purity="6.0129338502883911e-01" nType="-99"/>
        </Node>
        <Node pos="r" depth="1" NCoef="0" IVar="6" Cut="9.6688675880432129e-01" cType="1" res="-4.8176255077123642e-02" rms="4.7289931774139404e-01" purity="4.3917170166969299e-01" nType="0">
          <Node pos="l" depth="2" NCoef="0" IVar="-1" Cut="0.0000000000000000e+00" cType="1" res="-6.0205268673598766e-03" rms="4.7040453553199768e-01" purity="3.8743790984153748e-01" nType="-99"/>
          <Node pos="r" depth="2" NCoef="0" IVar="-1" Cut="0.0000000000000000e+00" cType="1" res="4.0889754891395569e-03" rms="4.6906235814094543e-01" purity="6.3730168342590332e-01" nType="-99"/>
        </Node>
      </Node>
    </BinaryTree>
    <BinaryTree type="DecisionTree" boostWeight="1.0000000000000000e+00" itree="36">
      <Node pos="s" depth="0" NCoef="0" IVar="2" Cut="2.1939842700958252e+00" cType="1" res="1.9079463090747595e-03" rms="4.7679099440574646e-01" purity="5.0011950731277466e-01" nType="0">
        <Node pos="l" depth="1" NCoef="0" IVar="1" Cut="3.0174200439453125e+02" cType="1" res="4.9394387751817703e-02" rms="4.7628802061080933e-01" purity="5.6697803735733032e-01" nType="0">
          <Node pos="l" depth="2" NCoef="0" IVar="-1" Cut="0.0000000000000000e+00" cType="1" res="-3.8007970433682203e-03" rms="4.7427049279212952e-01" purity="4.1355216503143311e-01" nType="-99"/>
          <Node pos="r" depth="2" NCoef="0" IVar="-1" Cut="0.0000000000000000e+00" cType="1" res="5.8081336319446564e-03" rms="4.7361299395561218e-01" purity="6.0691589117050171e-01" nType="-99"/>
        </Node>
        <Node pos="r" depth="1" NCoef="0" IVar="6" Cut="9.6488809585571289e-01" cType="1" res="-4.4252585619688034e-02" rms="4.7272917628288269e-01" purity="4.3512785434722900e-01" nType="0">
          <Node pos="l" depth="2" NCoef="0" IVar="-1" Cut="0.0000000000000000e+00" cType="1" res="-6.0015688650310040e-03" rms="4.6907898783683777e-01" purity="3.7820670008659363e-01" nType="-99"/>
          <Node pos="r" depth="2" NCoef="0" IVar="-1" Cut="0.0000000000000000e+00" cType="1" res="4.3800217099487782e-03" rms="4.7128960490226746e-01" purity="6.2780219316482544e-01" nType="-99"/>
        </Node>
      </Node>
    </BinaryTree>
    <BinaryTree type="DecisionTree" boostWeight="1.0000000000000000e+00" itree="37">
      <Node pos="s" depth="0" NCoef="0" IVar="7" Cut="7.0843058824539185e-01" cType="1" res="-6.1164720682427287e-04" rms="4.7501888871192932e-01" purity="4.9857029318809509e-01" nType="0">
        <Node pos="l" depth="1" NCoef="0" IVar="5" Cut="2.8272017836570740e-01" cType="1" res="-2.6742501184344292e-02" rms="4.7623994946479797e-01" purity="4.5165339112281799e-01" nType="0">
          <Node pos="l" depth="2" NCoef="0" IVar="-1" Cut="0.0000000000000000e+00" cType="1" res="1.8990428652614355e-03" rms="4.8193186521530151e-01" purity="5.1749092340469360e-01" nType="-99"/>
          <Node pos="r" depth="2" NCoef="0" IVar="-1" Cut="0.0000000000000000e+00" cType="1" res="-5.8139590546488762e-03" rms="4.6664217114448547e-01" purity="3.9378455281257629e-01" nType="-99"/>
        </Node>
        <Node pos="r" depth="1" NCoef="0" IVar="2" Cut="2.2516293525695801e+00" cType="1" res="8.4443248808383942e-02" rms="4.6087440848350525e-01" purity="6.5128296613693237e-01" nType="0">
          <Node pos="l" depth="2" NCoef="0" IVar="-1" Cut="0.0000000000000000e+00" cType="1" res="9.7870323807001114e-03" rms="4.4138753414154053e-01" purity="7.1749305725097656e-01" nType="-99"/>
          <Node pos="r" depth="2" NCoef="0" IVar="-1" Cut="0.0000000000000000e+00" cType="1" res="2.1913028322160244e-03" rms="4.8050323128700256e-01" purity="5.6092196702957153e-01" nType="-99"/>
        </Node>
      </Node>
    </BinaryTree>
    <BinaryTree type="DecisionTree" boostWeight="1.0000000000000000e+00" itree="38">
      <Node pos="s" depth="0" NCoef="0" IVar="6" Cut="9.7235220670700073e-01" cType="1" res="6.3595143146812916e-03" rms="4.7476789355278015e-01" purity="5.0492686033248901e-01" nType="0">
        <Node pos="l" depth="1" NCoef="0" IVar="2" Cut="2.5097160339355469e+00" cType="1" res="-1.5290659852325916e-02" rms="4.7843745350837708e-01" purity="4.6114832162857056e-01" nType="0">
          <Node pos="l" depth="2" NCoef="0" IVar="-1" Cut="0.0000000000000000e+00" cType="1" res="5.7304097572341561e-04" rms="4.8313382267951965e-01" purity="5.0170916318893433e-01" nType="-99"/>
          <Node pos="r" depth="2" NCoef="0" IVar="-1" Cut="0.0000000000000000e+00" cType="1" res="-8.7883640080690384e-03" rms="4.4836816191673279e-01" purity="3.0050966143608093e-01" nType="-99"/>
        </Node>
        <Node pos="r" depth="1" NCoef="0" IVar="5" Cut="4.1276484727859497e-01" cType="1" res="1.0824394971132278e-01" rms="4.4312259554862976e-01" purity="7.1094602346420288e-01" nType="0">
          <Node pos="l" depth="2" NCoef="0" IVar="-1" Cut="0.0000000000000000e+00" cType="1" res="1.0788724757730961e-02" rms="4.2712306976318359e-01" purity="7.4880856275558472e-01" nType="-99"/>
          <Node pos="r" depth="2" NCoef="0" IVar="-1" Cut="0.0000000000000000e+00" cType="1" res="3.1866910867393017e-03" rms="4.7128641605377197e-01" purity="6.2298464775085449e-01" nType="-99"/>
        </Node>
      </Node>
    </BinaryTree>
    <BinaryTree type="DecisionTree" boostWeight="1.0000000000000000e+00" itree="39">
      <Node pos="s" depth="0" NCoef="0" IVar="6" Cut="9.7054797410964966e-01" cType="1" res="1.5109245432540774e-03" rms="4.7312477231025696e-01" purity="5.0008046627044678e-01" nType="0">
        <Node pos="l" depth="1" NCoef="0" IVar="7" Cut="5.2699095010757446e-01" cType="1" res="-2.0626666024327278e-02" rms="4.7674095630645752e-01" purity="4.5403781533241272e-01" nType="0">
          <Node pos="l" depth="2" NCoef="0" IVar="-1" Cut="0.0000000000000000e+00" cType="1" res="-4.6881232410669327e-03" rms="4.7247111797332764e-01" purity="3.8640639185905457e-01" nType="-99"/>
          <Node pos="r" depth="2" NCoef="0" IVar="-1" Cut="0.0000000000000000e+00" cType="1" res="3.3651404082775116e-03" rms="4.7731739282608032e-01" purity="5.7022774219512939e-01" nType="-99"/>
        </Node>
        <Node pos="r" depth="1" NCoef="0" IVar="5" Cut="3.8839939236640930e-01" cType="1" res="1.0100255906581879e-01" rms="4.4306746125221252e-01" purity="7.0700734853744507e-01" nType="0">
          <Node pos="l" depth="2" NCoef="0" IVar="-1" Cut="0.0000000000000000e+00" cType="1" res="1.0490315034985542e-02" rms="4.2620310187339783e-01" purity="7.5062149763107300e-01" nType="-99"/>
          <Node pos="r" depth="2" NCoef="0" IVar="-1" Cut="0.0000000000000000e+00" cType="1" res="3.1412537209689617e-03" rms="4.6769532561302185e-01" purity="6.2327098846435547e-01" nType="-99"/>
        </Node>
      </Node>
    </BinaryTree>
    <BinaryTree type="DecisionTree" boostWeight="1.0000000000000000e+00" itree="40">
      <Node pos="s" depth="0" NCoef="0" IVar="2" Cut="2.3056325912475586e+00" cType="1" res="-6.8369014188647270e-03" rms="4.7389721870422363e-01" purity="4.9054011702537537e-01" nType="0">
        <Node pos="l" depth="1" NCoef="0" IVar="1" Cut="2.8315701293945312e+02" cType="1" res="2.9441110789775848e-02" rms="4.7503408789634705e-01" purity="5.5002367496490479e-01" nType="0">
          <Node pos="l" depth="2" NCoef="0" IVar="-1" Cut="0.0000000000000000e+00" cType="1" res="-7.6811052858829498e-03" rms="4.6285784244537354e-01" purity="3.5823491215705872e-01" nType="-99"/>
          <Node pos="r" depth="2" NCoef="0" IVar="-1" Cut="0.0000000000000000e+00" cType="1" res="3.8471813313663006e-03" rms="4.7402942180633545e-01" purity="5.8043992519378662e-01" nType="-99"/>
        </Node>
        <Node pos="r" depth="1" NCoef="0" IVar="5" Cut="5.2029806375503540e-01" cType="1" res="-7.0040322840213776e-02" rms="4.6520045399665833e-01" purity="3.8690817356109619e-01" nType="0">
          <Node pos="l" depth="2" NCoef="0" IVar="-1" Cut="0.0000000000000000e+00" cType="1" res="-3.2749271485954523e-03" rms="4.7502395510673523e-01" purity="4.2728060483932495e-01" nType="-99"/>
          <Node pos="r" depth="2" NCoef="0" IVar="-1" Cut="0.0000000000000000e+00" cType="1" res="-1.3070359826087952e-02" rms="4.2458638548851013e-01" purity="2.7122122049331665e-01" nType="-99"/>
        </Node>
      </Node>
    </BinaryTree>
    <BinaryTree type="DecisionTree" boostWeight="1.0000000000000000e+00" itree="41">
      <Node pos="s" depth="0" NCoef="0" IVar="1" Cut="3.6663500976562500e+02" cType="1" res="4.0516727603971958e-03" rms="4.7512549161911011e-01" purity="5.0168687105178833e-01" nType="0">
        <Node pos="l" depth="1" NCoef="0" IVar="5" Cut="4.4693776965141296e-01" cType="1" res="-4.5890830457210541e-02" rms="4.7082540392875671e-01" purity="4.2280504107475281e-01" nType="0">
          <Node pos="l" depth="2" NCoef="0" IVar="-1" Cut="0.0000000000000000e+00" cType="1" res="-1.6083421651273966e-03" rms="4.7758322954177856e-01" purity="4.5988178253173828e-01" nType="-99"/>
          <Node pos="r" depth="2" NCoef="0" IVar="-1" Cut="0.0000000000000000e+00" cType="1" res="-1.1505478061735630e-02" rms="4.3456703424453735e-01" purity="2.9369881749153137e-01" nType="-99"/>
        </Node>
        <Node pos="r" depth="1" NCoef="0" IVar="6" Cut="9.2470264434814453e-01" cType="1" res="4.3562125414609909e-02" rms="4.7479248046875000e-01" purity="5.6409168243408203e-01" nType="0">
          <Node pos="l" depth="2" NCoef="0" IVar="-1" Cut="0.0000000000000000e+00" cType="1" res="-7.2266132337972522e-04" rms="4.8534435033798218e-01" purity="4.5197758078575134e-01" nType="-99"/>
          <Node pos="r" depth="2" NCoef="0" IVar="-1" Cut="0.0000000000000000e+00" cType="1" res="6.0222935862839222e-03" rms="4.6499770879745483e-01" purity="6.3455951213836670e-01" nType="-99"/>
        </Node>
      </Node>
    </BinaryTree>
    <BinaryTree type="DecisionTree" boostWeight="1.0000000000000000e+00" itree="42">
      <Node pos="s" depth="0" NCoef="0" IVar="6" Cut="9.7604316473007202e-01" cType="1" res="3.3593352418392897e-03" rms="4.7336006164550781e-01" purity="5.0119489431381226e-01" nType="0">
        <Node pos="l" depth="1" NCoef="0" IVar="7" Cut="5.2694654464721680e-01" cType="1" res="-1.5336999669671059e-02" rms="4.7720834612846375e-01" purity="4.6294870972633362e-01" nType="0">
          <Node pos="l" depth="2" NCoef="0" IVar="-1" Cut="0.0000000000000000e+00" cType="1" res="-4.1436925530433655e-03" rms="4.7493031620979309e-01" purity="3.9658060669898987e-01" nType="-99"/>
          <Node pos="r" depth="2" NCoef="0" IVar="-1" Cut="0.0000000000000000e+00" cType="1" res="3.6005112342536449e-03" rms="4.7490289807319641e-01" purity="5.7725054025650024e-01" nType="-99"/>
        </Node>
        <Node pos="r" depth="1" NCoef="0" IVar="1" Cut="3.7750927734375000e+02" cType="1" res="1.1344703286886215e-01" rms="4.3399652838706970e-01" purity="7.2639584541320801e-01" nType="0">
          <Node pos="l" depth="2" NCoef="0" IVar="-1" Cut="0.0000000000000000e+00" cType="1" res="5.3788055665791035e-03" rms="4.5925727486610413e-01" purity="6.6070729494094849e-01" nType="-99"/>
          <Node pos="r" depth="2" NCoef="0" IVar="-1" Cut="0.0000000000000000e+00" cType="1" res="1.1977233923971653e-02" rms="4.0860787034034729e-01" purity="7.7989226579666138e-01" nType="-99"/>
        </Node>
      </Node>
    </BinaryTree>
    <BinaryTree type="DecisionTree" boostWeight="1.0000000000000000e+00" itree="43">
      <Node pos="s" depth="0" NCoef="0" IVar="6" Cut="9.2478239536285400e-01" cType="1" res="-2.9311904654605314e-05" rms="4.7320452332496643e-01" purity="4.9832811951637268e-01" nType="0">
        <Node pos="l" depth="1" NCoef="0" IVar="7" Cut="3.4544745087623596e-01" cType="1" res="-6.0479052364826202e-02" rms="4.6889677643775940e-01" purity="3.7487968802452087e-01" nType="0">
          <Node pos="l" depth="2" NCoef="0" IVar="-1" Cut="0.0000000000000000e+00" cType="1" res="-8.6581651121377945e-03" rms="4.5086294412612915e-01" purity="2.9670086503028870e-01" nType="-99"/>
          <Node pos="r" depth="2" NCoef="0" IVar="-1" Cut="0.0000000000000000e+00" cType="1" res="-2.0105065777897835e-03" rms="4.8048207163810730e-01" purity="4.3973809480667114e-01" nType="-99"/>
        </Node>
        <Node pos="r" depth="1" NCoef="0" IVar="7" Cut="7.0834428071975708e-01" cType="1" res="3.8833245635032654e-02" rms="4.7188141942024231e-01" purity="5.7769191265106201e-01" nType="0">
          <Node pos="l" depth="2" NCoef="0" IVar="-1" Cut="0.0000000000000000e+00" cType="1" res="1.1899428209289908e-03" rms="4.7932901978492737e-01" purity="5.3561711311340332e-01" nType="-99"/>
          <Node pos="r" depth="2" NCoef="0" IVar="-1" Cut="0.0000000000000000e+00" cType="1" res="9.3262698501348495e-03" rms="4.3703162670135498e-01" purity="7.1743541955947876e-01" nType="-99"/>
        </Node>
      </Node>
    </BinaryTree>
    <BinaryTree type="DecisionTree" boostWeight="1.0000000000000000e+00" itree="44">
      <Node pos="s" depth="0" NCoef="0" IVar="6" Cut="9.6857136487960815e-01" cType="1" res="2.1839910186827183e-03" rms="4.7288492321968079e-01" purity="5.0041681528091431e-01" nType="0">
        <Node pos="l" depth="1" NCoef="0" IVar="1" Cut="4.3676123046875000e+02" cType="1" res="-2.0137961953878403e-02" rms="4.7752234339714050e-01" purity="4.4781357049942017e-01" nType="0">
          <Node pos="l" depth="2" NCoef="0" IVar="-1" Cut="0.0000000000000000e+00" cType="1" res="-4.5234709978103638e-03" rms="4.7097158432006836e-01" purity="3.9808180928230286e-01" nType="-99"/>
          <Node pos="r" depth="2" NCoef="0" IVar="-1" Cut="0.0000000000000000e+00" cType="1" res="3.3937036059796810e-03" rms="4.8262348771095276e-01" purity="5.3700757026672363e-01" nType="-99"/>
        </Node>
        <Node pos="r" depth="1" NCoef="0" IVar="2" Cut="2.2678141593933105e+00" cType="1" res="8.8693961501121521e-02" rms="4.4398620724678040e-01" purity="7.0428347587585449e-01" nType="0">
          <Node pos="l" depth="2" NCoef="0" IVar="-1" Cut="0.0000000000000000e+00" cType="1" res="1.0123569518327713e-02" rms="4.1843920946121216e-01" purity="7.6643693447113037e-01" nType="-99"/>
          <Node pos="r" depth="2" NCoef="0" IVar="-1" Cut="0.0000000000000000e+00" cType="1" res="2.1816960070282221e-03" rms="4.7671565413475037e-01" purity="6.0234761238098145e-01" nType="-99"/>
        </Node>
      </Node>
    </BinaryTree>
    <BinaryTree type="DecisionTree" boostWeight="1.0000000000000000e+00" itree="45">
      <Node pos="s" depth="0" NCoef="0" IVar="2" Cut="2.4938676357269287e+00" cType="1" res="-3.3679429907351732e-03" rms="4.7188457846641541e-01" purity="4.9556466937065125e-01" nType="0">
        <Node pos="l" depth="1" NCoef="0" IVar="1" Cut="2.9117224121093750e+02" cType="1" res="1.9679177552461624e-02" rms="4.7473868727684021e-01" purity="5.3970175981521606e-01" nType="0">
          <Node pos="l" depth="2" NCoef="0" IVar="-1" Cut="0.0000000000000000e+00" cType="1" res="-6.4498423598706722e-03" rms="4.6119055151939392e-01" purity="3.6811277270317078e-01" nType="-99"/>
          <Node pos="r" depth="2" NCoef="0" IVar="-1" Cut="0.0000000000000000e+00" cType="1" res="3.0767386779189110e-03" rms="4.7500106692314148e-01" purity="5.7340151071548462e-01" nType="-99"/>
        </Node>
        <Node pos="r" depth="1" NCoef="0" IVar="2" Cut="2.8198087215423584e+00" cType="1" res="-9.3476407229900360e-02" rms="4.4935017824172974e-01" purity="3.2299953699111938e-01" nType="0">
          <Node pos="l" depth="2" NCoef="0" IVar="-1" Cut="0.0000000000000000e+00" cType="1" res="-4.6418621204793453e-03" rms="4.6589180827140808e-01" purity="3.7273785471916199e-01" nType="-99"/>
          <Node pos="r" depth="2" NCoef="0" IVar="-1" Cut="0.0000000000000000e+00" cType="1" res="-1.4683907851576805e-02" rms="4.0293580293655396e-01" purity="2.2131444513797760e-01" nType="-99"/>
        </Node>
      </Node>
    </BinaryTree>
    <BinaryTree type="DecisionTree" boostWeight="1.0000000000000000e+00" itree="46">
      <Node pos="s" depth="0" NCoef="0" IVar="1" Cut="3.4314746093750000e+02" cType="1" res="3.3191582188010216e-03" rms="4.7237429022789001e-01" purity="5.0135219097137451e-01" nType="0">
        <Node pos="l" depth="1" NCoef="0" IVar="5" Cut="3.2684326171875000e-01" cType="1" res="-5.6321527808904648e-02" rms="4.6233984827995300e-01" purity="3.9660936594009399e-01" nType="0">
          <Node pos="l" depth="2" NCoef="0" IVar="-1" Cut="0.0000000000000000e+00" cType="1" res="-8.7563885608687997e-04" rms="4.7682291269302368e-01" purity="4.5977583527565002e-01" nType="-99"/>
          <Node pos="r" depth="2" NCoef="0" IVar="-1" Cut="0.0000000000000000e+00" cType="1" res="-1.0039979591965675e-02" rms="4.3413341045379639e-01" purity="3.1026682257652283e-01" nType="-99"/>
        </Node>
        <Node pos="r" depth="1" NCoef="0" IVar="2" Cut="2.2440669536590576e+00" cType="1" res="3.6382902413606644e-02" rms="4.7462832927703857e-01" purity="5.5941981077194214e-01" nType="0">
          <Node pos="l" depth="2" NCoef="0" IVar="-1" Cut="0.0000000000000000e+00" cType="1" res="5.8375671505928040e-03" rms="4.6719932556152344e-01" purity="6.2375289201736450e-01" nType="-99"/>
          <Node pos="r" depth="2" NCoef="0" IVar="-1" Cut="0.0000000000000000e+00" cType="1" res="-1.1587528279051185e-03" rms="4.7978910803794861e-01" purity="4.7277963161468506e-01" nType="-99"/>
        </Node>
      </Node>
    </BinaryTree>
    <BinaryTree type="DecisionTree" boostWeight="1.0000000000000000e+00" itree="47">
      <Node pos="s" depth="0" NCoef="0" IVar="6" Cut="9.1379910707473755e-01" cType="1" res="3.8843611255288124e-03" rms="4.7138333320617676e-01" purity="5.0258839130401611e-01" nType="0">
        <Node pos="l" depth="1" NCoef="0" IVar="7" Cut="5.2646350860595703e-01" cType="1" res="-6.8990357220172882e-02" rms="4.6301904320716858e-01" purity="3.6057969927787781e-01" nType="0">
          <Node pos="l" depth="2" NCoef="0" IVar="-1" Cut="0.0000000000000000e+00" cType="1" res="-8.8729821145534515e-03" rms="4.4691315293312073e-01" purity="2.9068079590797424e-01" nType="-99"/>
          <Node pos="r" depth="2" NCoef="0" IVar="-1" Cut="0.0000000000000000e+00" cType="1" res="-5.6071385188261047e-05" rms="4.8479351401329041e-01" purity="4.9298834800720215e-01" nType="-99"/>
        </Node>
        <Node pos="r" depth="1" NCoef="0" IVar="2" Cut="2.3073701858520508e+00" cType="1" res="3.1205797567963600e-02" rms="4.7158762812614441e-01" purity="5.5582886934280396e-01" nType="0">
          <Node pos="l" depth="2" NCoef="0" IVar="-1" Cut="0.0000000000000000e+00" cType="1" res="4.8630484379827976e-03" rms="4.6775341033935547e-01" purity="6.1362046003341675e-01" nType="-99"/>
          <Node pos="r" depth="2" NCoef="0" IVar="-1" Cut="0.0000000000000000e+00" cType="1" res="-1.9069135887548327e-03" rms="4.7359612584114075e-01" purity="4.5073428750038147e-01" nType="-99"/>
        </Node>
      </Node>
    </BinaryTree>
    <BinaryTree type="DecisionTree" boostWeight="1.0000000000000000e+00" itree="48">
      <Node pos="s" depth="0" NCoef="0" IVar="6" Cut="9.2295181751251221e-01" cType="1" res="5.0537235802039504e-04" rms="4.7214359045028687e-01" purity="4.9816888570785522e-01" nType="0">
        <Node pos="l" depth="1" NCoef="0" IVar="1" Cut="5.1228594970703125e+02" cType="1" res="-5.1840458065271378e-02" rms="4.6655386686325073e-01" purity="3.7756550312042236e-01" nType="0">
          <Node pos="l" depth="2" NCoef="0" IVar="-1" Cut="0.0000000000000000e+00" cType="1" res="-6.4470372162759304e-03" rms="4.5806378126144409e-01" purity="3.4159782528877258e-01" nType="-99"/>
          <Node pos="r" depth="2" NCoef="0" IVar="-1" Cut="0.0000000000000000e+00" cType="1" res="3.0693637672811747e-03" rms="4.8474368453025818e-01" purity="5.0520122051239014e-01" nType="-99"/>
        </Node>
        <Node pos="r" depth="1" NCoef="0" IVar="2" Cut="2.6297807693481445e+00" cType="1" res="3.0699666589498520e-02" rms="4.7270917892456055e-01" purity="5.6773567199707031e-01" nType="0">
          <Node pos="l" depth="2" NCoef="0" IVar="-1" Cut="0.0000000000000000e+00" cType="1" res="3.5786386579275131e-03" rms="4.7219744324684143e-01" purity="5.9998327493667603e-01" nType="-99"/>
          <Node pos="r" depth="2" NCoef="0" IVar="-1" Cut="0.0000000000000000e+00" cType="1" res="-5.6783659383654594e-03" rms="4.6423673629760742e-01" purity="3.4600955247879028e-01" nType="-99"/>
        </Node>
      </Node>
    </BinaryTree>
    <BinaryTree type="DecisionTree" boostWeight="1.0000000000000000e+00" itree="49">
      <Node pos="s" depth="0" NCoef="0" IVar="7" Cut="5.2699095010757446e-01" cType="1" res="2.7195098809897900e-03" rms="4.7150793671607971e-01" purity="5.0045210123062134e-01" nType="0">
        <Node pos="l" depth="1" NCoef="0" IVar="6" Cut="9.7597998380661011e-01" cType="1" res="-3.2962393015623093e-02" rms="4.7099080681800842e-01" purity="4.3274489045143127e-01" nType="0">
          <Node pos="l" depth="2" NCoef="0" IVar="-1" Cut="0.0000000000000000e+00" cType="1" res="-4.1609811596572399e-03" rms="4.7165188193321228e-01" purity="3.9122319221496582e-01" nType="-99"/>
          <Node pos="r" depth="2" NCoef="0" IVar="-1" Cut="0.0000000000000000e+00" cType="1" res="5.9055634774267673e-03" rms="4.5242175459861755e-01" purity="6.8352448940277100e-01" nType="-99"/>
        </Node>
        <Node pos="r" depth="1" NCoef="0" IVar="7" Cut="8.4161448478698730e-01" cType="1" res="6.3025474548339844e-02" rms="4.6621334552764893e-01" purity="6.1488395929336548e-01" nType="0">
          <Node pos="l" depth="2" NCoef="0" IVar="-1" Cut="0.0000000000000000e+00" cType="1" res="3.1449166126549244e-03" rms="4.7203963994979858e-01" purity="5.8276617527008057e-01" nType="-99"/>
          <Node pos="r" depth="2" NCoef="0" IVar="-1" Cut="0.0000000000000000e+00" cType="1" res="1.1406727135181427e-02" rms="4.3514776229858398e-01" purity="7.2792667150497437e-01" nType="-99"/>
        </Node>
      </Node>
    </BinaryTree>
    <BinaryTree type="DecisionTree" boostWeight="1.0000000000000000e+00" itree="50">
      <Node pos="s" depth="0" NCoef="0" IVar="5" Cut="2.9831913113594055e-01" cType="1" res="-1.5135222347453237e-03" rms="4.7101265192031860e-01" purity="4.9513837695121765e-01" nType="0">
        <Node pos="l" depth="1" NCoef="0" IVar="6" Cut="9.2473340034484863e-01" cType="1" res="3.9601631462574005e-02" rms="4.7254496812820435e-01" purity="5.5654919147491455e-01" nType="0">
          <Node pos="l" depth="2" NCoef="0" IVar="-1" Cut="0.0000000000000000e+00" cType="1" res="-1.0074974270537496e-03" rms="4.8082241415977478e-01" purity="4.3182533979415894e-01" nType="-99"/>
          <Node pos="r" depth="2" NCoef="0" IVar="-1" Cut="0.0000000000000000e+00" cType="1" res="5.6705162860453129e-03" rms="4.6449181437492371e-01" purity="6.3324385881423950e-01" nType="-99"/>
        </Node>
        <Node pos="r" depth="1" NCoef="0" IVar="1" Cut="3.0678756713867188e+02" cType="1" res="-4.2465236037969589e-02" rms="4.6588847041130066e-01" purity="4.3397173285484314e-01" nType="0">
          <Node pos="l" depth="2" NCoef="0" IVar="-1" Cut="0.0000000000000000e+00" cType="1" res="-1.0695465840399265e-02" rms="4.2087826132774353e-01" purity="2.7822995185852051e-01" nType="-99"/>
          <Node pos="r" depth="2" NCoef="0" IVar="-1" Cut="0.0000000000000000e+00" cType="1" res="-1.6313601518049836e-03" rms="4.7511833906173706e-01" purity="4.7685426473617554e-01" nType="-99"/>
        </Node>
      </Node>
    </BinaryTree>
    <BinaryTree type="DecisionTree" boostWeight="1.0000000000000000e+00" itree="51">
      <Node pos="s" depth="0" NCoef="0" IVar="6" Cut="9.4673186540603638e-01" cType="1" res="7.1789468638598919e-03" rms="4.7091764211654663e-01" purity="5.0579345226287842e-01" nType="0">
        <Node pos="l" depth="1" NCoef="0" IVar="5" Cut="2.9198482632637024e-01" cType="1" res="-2.6985704898834229e-02" rms="4.7453317046165466e-01" purity="4.1598635911941528e-01" nType="0">
          <Node pos="l" depth="2" NCoef="0" IVar="-1" Cut="0.0000000000000000e+00" cType="1" res="1.1800486827269197e-03" rms="4.8562577366828918e-01" purity="4.7700604796409607e-01" nType="-99"/>
          <Node pos="r" depth="2" NCoef="0" IVar="-1" Cut="0.0000000000000000e+00" cType="1" res="-5.4930672049522400e-03" rms="4.6052363514900208e-01" purity="3.5900557041168213e-01" nType="-99"/>
        </Node>
        <Node pos="r" depth="1" NCoef="0" IVar="3" Cut="3.1589305400848389e-01" cType="1" res="6.0968834906816483e-02" rms="4.6005481481552124e-01" purity="6.4718836545944214e-01" nType="0">
          <Node pos="l" depth="2" NCoef="0" IVar="-1" Cut="0.0000000000000000e+00" cType="1" res="5.0047057447955012e-04" rms="4.7303274273872375e-01" purity="5.8310568332672119e-01" nType="-99"/>
          <Node pos="r" depth="2" NCoef="0" IVar="-1" Cut="0.0000000000000000e+00" cType="1" res="7.0507121272385120e-03" rms="4.5082235336303711e-01" purity="6.7960566282272339e-01" nType="-99"/>
        </Node>
      </Node>
    </BinaryTree>
    <BinaryTree type="DecisionTree" boostWeight="1.0000000000000000e+00" itree="52">
      <Node pos="s" depth="0" NCoef="0" IVar="7" Cut="7.0849078893661499e-01" cType="1" res="5.9468736872076988e-03" rms="4.7060918807983398e-01" purity="5.0416815280914307e-01" nType="0">
        <Node pos="l" depth="1" NCoef="0" IVar="1" Cut="3.4476538085937500e+02" cType="1" res="-1.6825459897518158e-02" rms="4.7342211008071899e-01" purity="4.5712757110595703e-01" nType="0">
          <Node pos="l" depth="2" NCoef="0" IVar="-1" Cut="0.0000000000000000e+00" cType="1" res="-6.0167913325130939e-03" rms="4.5737507939338684e-01" purity="3.5808137059211731e-01" nType="-99"/>
          <Node pos="r" depth="2" NCoef="0" IVar="-1" Cut="0.0000000000000000e+00" cType="1" res="1.2579751200973988e-03" rms="4.7976067662239075e-01" purity="5.1605749130249023e-01" nType="-99"/>
        </Node>
        <Node pos="r" depth="1" NCoef="0" IVar="2" Cut="2.4465639591217041e+00" cType="1" res="8.3309240639209747e-02" rms="4.5244345068931580e-01" purity="6.6397476196289062e-01" nType="0">
          <Node pos="l" depth="2" NCoef="0" IVar="-1" Cut="0.0000000000000000e+00" cType="1" res="8.4574045613408089e-03" rms="4.4015219807624817e-01" purity="7.1569037437438965e-01" nType="-99"/>
          <Node pos="r" depth="2" NCoef="0" IVar="-1" Cut="0.0000000000000000e+00" cType="1" res="5.1122321747243404e-04" rms="4.8354390263557434e-01" purity="4.9065139889717102e-01" nType="-99"/>
        </Node>
      </Node>
    </BinaryTree>
    <BinaryTree type="DecisionTree" boostWeight="1.0000000000000000e+00" itree="53">
      <Node pos="s" depth="0" NCoef="0" IVar="6" Cut="9.3941462039947510e-01" cType="1" res="2.4445394519716501e-03" rms="4.6945938467979431e-01" purity="5.0090545415878296e-01" nType="0">
        <Node pos="l" depth="1" NCoef="0" IVar="3" Cut="4.5269677042961121e-01" cType="1" res="-3.7329811602830887e-02" rms="4.7056236863136292e-01" purity="3.9758840203285217e-01" nType="0">
          <Node pos="l" depth="2" NCoef="0" IVar="-1" Cut="0.0000000000000000e+00" cType="1" res="-5.9521533548831940e-03" rms="4.6106368303298950e-01" purity="3.6153048276901245e-01" nType="-99"/>
          <Node pos="r" depth="2" NCoef="0" IVar="-1" Cut="0.0000000000000000e+00" cType="1" res="1.7418900970369577e-03" rms="4.8061105608940125e-01" purity="4.5893266797065735e-01" nType="-99"/>
        </Node>
        <Node pos="r" depth="1" NCoef="0" IVar="6" Cut="9.8772585391998291e-01" cType="1" res="4.8582199960947037e-02" rms="4.6392416954040527e-01" purity="6.2075173854827881e-01" nType="0">
          <Node pos="l" depth="2" NCoef="0" IVar="-1" Cut="0.0000000000000000e+00" cType="1" res="2.5856988504528999e-03" rms="4.7097125649452209e-01" purity="5.9583944082260132e-01" nType="-99"/>
          <Node pos="r" depth="2" NCoef="0" IVar="-1" Cut="0.0000000000000000e+00" cType="1" res="1.2100555002689362e-02" rms="4.0190571546554565e-01" purity="7.7797383069992065e-01" nType="-99"/>
        </Node>
      </Node>
    </BinaryTree>
    <BinaryTree type="DecisionTree" boostWeight="1.0000000000000000e+00" itree="54">
      <Node pos="s" depth="0" NCoef="0" IVar="1" Cut="2.8315701293945312e+02" cType="1" res="4.7414237633347511e-03" rms="4.7037461400032043e-01" purity="5.0370985269546509e-01" nType="0">
        <Node pos="l" depth="1" NCoef="0" IVar="3" Cut="4.0386787056922913e-01" cType="1" res="-9.4191610813140869e-02" rms="4.4545787572860718e-01" purity="3.1937849521636963e-01" nType="0">
          <Node pos="l" depth="2" NCoef="0" IVar="-1" Cut="0.0000000000000000e+00" cType="1" res="-1.2720952741801739e-02" rms="4.1529360413551331e-01" purity="2.5178939104080200e-01" nType="-99"/>
          <Node pos="r" depth="2" NCoef="0" IVar="-1" Cut="0.0000000000000000e+00" cType="1" res="-4.5434823259711266e-03" rms="4.6389392018318176e-01" purity="3.7254530191421509e-01" nType="-99"/>
        </Node>
        <Node pos="r" depth="1" NCoef="0" IVar="2" Cut="2.6209464073181152e+00" cType="1" res="2.1891344338655472e-02" rms="4.7245869040489197e-01" purity="5.3566348552703857e-01" nType="0">
          <Node pos="l" depth="2" NCoef="0" IVar="-1" Cut="0.0000000000000000e+00" cType="1" res="2.8226776048541069e-03" rms="4.7338247299194336e-01" purity="5.6580895185470581e-01" nType="-99"/>
          <Node pos="r" depth="2" NCoef="0" IVar="-1" Cut="0.0000000000000000e+00" cType="1" res="-6.2954029999673367e-03" rms="4.5439204573631287e-01" purity="3.2060351967811584e-01" nType="-99"/>
        </Node>
      </Node>
    </BinaryTree>
    <BinaryTree type="DecisionTree" boostWeight="1.0000000000000000e+00" itree="55">
      <Node pos="s" depth="0" NCoef="0" IVar="7" Cut="7.0845341682434082e-01" cType="1" res="3.6753311287611723e-03" rms="4.7018143534660339e-01" purity="5.0317662954330444e-01" nType="0">
        <Node pos="l" depth="1" NCoef="0" IVar="1" Cut="4.1124047851562500e+02" cType="1" res="-1.9619768485426903e-02" rms="4.7267797589302063e-01" purity="4.5438167452812195e-01" nType="0">
          <Node pos="l" depth="2" NCoef="0" IVar="-1" Cut="0.0000000000000000e+00" cType="1" res="-4.5085833407938480e-03" rms="4.6362763643264771e-01" purity="3.9754235744476318e-01" nType="-99"/>
          <Node pos="r" depth="2" NCoef="0" IVar="-1" Cut="0.0000000000000000e+00" cType="1" res="2.3132916539907455e-03" rms="4.8092147707939148e-01" purity="5.3423720598220825e-01" nType="-99"/>
        </Node>
        <Node pos="r" depth="1" NCoef="0" IVar="5" Cut="2.5906983017921448e-01" cType="1" res="8.0986142158508301e-02" rms="4.5329976081848145e-01" purity="6.6511523723602295e-01" nType="0">
          <Node pos="l" depth="2" NCoef="0" IVar="-1" Cut="0.0000000000000000e+00" cType="1" res="1.0514459572732449e-02" rms="4.2880290746688843e-01" purity="7.3995727300643921e-01" nType="-99"/>
          <Node pos="r" depth="2" NCoef="0" IVar="-1" Cut="0.0000000000000000e+00" cType="1" res="3.0026857275515795e-03" rms="4.6857574582099915e-01" purity="6.0209107398986816e-01" nType="-99"/>
        </Node>
      </Node>
    </BinaryTree>
    <BinaryTree type="DecisionTree" boostWeight="1.0000000000000000e+00" itree="56">
      <Node pos="s" depth="0" NCoef="0" IVar="5" Cut="2.2707891464233398e-01" cType="1" res="1.4630964724346995e-03" rms="4.6971666812896729e-01" purity="5.0031620264053345e-01" nType="0">
        <Node pos="l" depth="1" NCoef="0" IVar="7" Cut="5.2695417404174805e-01" cType="1" res="5.5719345808029175e-02" rms="4.6834790706634521e-01" purity="5.8282822370529175e-01" nType="0">
          <Node pos="l" depth="2" NCoef="0" IVar="-1" Cut="0.0000000000000000e+00" cType="1" res="1.8364742863923311e-03" rms="4.8085290193557739e-01" purity="5.1203697919845581e-01" nType="-99"/>
          <Node pos="r" depth="2" NCoef="0" IVar="-1" Cut="0.0000000000000000e+00" cType="1" res="8.6114788427948952e-03" rms="4.4257351756095886e-01" purity="6.9607710838317871e-01" nType="-99"/>
        </Node>
        <Node pos="r" depth="1" NCoef="0" IVar="1" Cut="4.5646743774414062e+02" cType="1" res="-3.3701460808515549e-02" rms="4.6724885702133179e-01" purity="4.4683846831321716e-01" nType="0">
          <Node pos="l" depth="2" NCoef="0" IVar="-1" Cut="0.0000000000000000e+00" cType="1" res="-5.4700057953596115e-03" rms="4.6000635623931885e-01" purity="3.9326331019401550e-01" nType="-99"/>
          <Node pos="r" depth="2" NCoef="0" IVar="-1" Cut="0.0000000000000000e+00" cType="1" res="2.2830949164927006e-03" rms="4.7495663166046143e-01" purity="5.5144232511520386e-01" nType="-99"/>
        </Node>
      </Node>
    </BinaryTree>
    <BinaryTree type="DecisionTree" boostWeight="1.0000000000000000e+00" itree="57">
      <Node pos="s" depth="0" NCoef="0" IVar="5" Cut="4.2416599392890930e-01" cType="1" res="4.6369284391403198e-03" rms="4.6970725059509277e-01" purity="5.0320196151733398e-01" nType="0">
        <Node pos="l" depth="1" NCoef="0" IVar="7" Cut="5.2694654464721680e-01" cType="1" res="2.9022503644227982e-02" rms="4.7106641530990601e-01" purity="5.4199016094207764e-01" nType="0">
          <Node pos="l" depth="2" NCoef="0" IVar="-1" Cut="0.0000000000000000e+00" cType="1" res="-2.9070727759972215e-04" rms="4.7513607144355774e-01" purity="4.7311818599700928e-01" nType="-99"/>
          <Node pos="r" depth="2" NCoef="0" IVar="-1" Cut="0.0000000000000000e+00" cType="1" res="6.5089929848909378e-03" rms="4.5955944061279297e-01" purity="6.5322083234786987e-01" nType="-99"/>
        </Node>
        <Node pos="r" depth="1" NCoef="0" IVar="1" Cut="5.2701989746093750e+02" cType="1" res="-5.2927635610103607e-02" rms="4.6139901876449585e-01" purity="4.1163834929466248e-01" nType="0">
          <Node pos="l" depth="2" NCoef="0" IVar="-1" Cut="0.0000000000000000e+00" cType="1" res="-6.7780222743749619e-03" rms="4.5281976461410522e-01" purity="3.6741852760314941e-01" nType="-99"/>
          <Node pos="r" depth="2" NCoef="0" IVar="-1" Cut="0.0000000000000000e+00" cType="1" res="2.3122595157474279e-03" rms="4.7663229703903198e-01" purity="5.4272264242172241e-01" nType="-99"/>
        </Node>
      </Node>
    </BinaryTree>
    <BinaryTree type="DecisionTree" boostWeight="1.0000000000000000e+00" itree="58">
      <Node pos="s" depth="0" NCoef="0" IVar="6" Cut="9.5041757822036743e-01" cType="1" res="-1.0108749847859144e-03" rms="4.6931278705596924e-01" purity="4.9979391694068909e-01" nType="0">
        <Node pos="l" depth="1" NCoef="0" IVar="2" Cut="2.6303625106811523e+00" cType="1" res="-2.8041884303092957e-02" rms="4.7286573052406311e-01" purity="4.1628175973892212e-01" nType="0">
          <Node pos="l" depth="2" NCoef="0" IVar="-1" Cut="0.0000000000000000e+00" cType="1" res="-1.1573939118534327e-03" rms="4.8038023710250854e-01" purity="4.4539386034011841e-01" nType="-99"/>
          <Node pos="r" depth="2" NCoef="0" IVar="-1" Cut="0.0000000000000000e+00" cType="1" res="-1.0358107276260853e-02" rms="4.1200840473175049e-01" purity="2.3259735107421875e-01" nType="-99"/>
        </Node>
        <Node pos="r" depth="1" NCoef="0" IVar="5" Cut="4.0855199098587036e-01" cType="1" res="4.7374919056892395e-02" rms="4.5892629027366638e-01" purity="6.4928168058395386e-01" nType="0">
          <Node pos="l" depth="2" NCoef="0" IVar="-1" Cut="0.0000000000000000e+00" cType="1" res="5.6804195046424866e-03" rms="4.5048370957374573e-01" purity="6.8691855669021606e-01" nType="-99"/>
          <Node pos="r" depth="2" NCoef="0" IVar="-1" Cut="0.0000000000000000e+00" cType="1" res="-3.2904776162467897e-04" rms="4.7338038682937622e-01" purity="5.6448453664779663e-01" nType="-99"/>
        </Node>
      </Node>
    </BinaryTree>
    <BinaryTree type="DecisionTree" boostWeight="1.0000000000000000e+00" itree="59">
      <Node pos="s" depth="0" NCoef="0" IVar="1" Cut="3.9379684448242188e+02" cType="1" res="-2.1130938548594713e-03" rms="4.6930125355720520e-01" purity="4.9665778875350952e-01" nType="0">
        <Node pos="l" depth="1" NCoef="0" IVar="3" Cut="5.7375776767730713e-01" cType="1" res="-4.1022207587957382e-02" rms="4.6480759978294373e-01" purity="4.2792478203773499e-01" nType="0">
          <Node pos="l" depth="2" NCoef="0" IVar="-1" Cut="0.0000000000000000e+00" cType="1" res="-5.8586569502949715e-03" rms="4.5845377445220947e-01" purity="3.9262992143630981e-01" nType="-99"/>
          <Node pos="r" depth="2" NCoef="0" IVar="-1" Cut="0.0000000000000000e+00" cType="1" res="3.6185840144753456e-03" rms="4.7279763221740723e-01" purity="5.3223657608032227e-01" nType="-99"/>
        </Node>
        <Node pos="r" depth="1" NCoef="0" IVar="5" Cut="3.5456380248069763e-01" cType="1" res="3.9706222712993622e-02" rms="4.7050943970680237e-01" purity="5.7053172588348389e-01" nType="0">
          <Node pos="l" depth="2" NCoef="0" IVar="-1" Cut="0.0000000000000000e+00" cType="1" res="6.0208006761968136e-03" rms="4.6330055594444275e-01" purity="6.2523812055587769e-01" nType="-99"/>
          <Node pos="r" depth="2" NCoef="0" IVar="-1" Cut="0.0000000000000000e+00" cType="1" res="-4.4558197259902954e-04" rms="4.7560936212539673e-01" purity="5.0152540206909180e-01" nType="-99"/>
        </Node>
      </Node>
    </BinaryTree>
    <BinaryTree type="DecisionTree" boostWeight="1.0000000000000000e+00" itree="60">
      <Node pos="s" depth="0" NCoef="0" IVar="2" Cut="2.1636800765991211e+00" cType="1" res="-3.8396715535782278e-04" rms="4.6829849481582642e-01" purity="4.9781942367553711e-01" nType="0">
        <Node pos="l" depth="1" NCoef="0" IVar="6" Cut="9.3931144475936890e-01" cType="1" res="4.2704723775386810e-02" rms="4.6858561038970947e-01" purity="5.7377356290817261e-01" nType="0">
          <Node pos="l" depth="2" NCoef="0" IVar="-1" Cut="0.0000000000000000e+00" cType="1" res="6.1129301320761442e-04" rms="4.8392215371131897e-01" purity="4.6642643213272095e-01" nType="-99"/>
          <Node pos="r" depth="2" NCoef="0" IVar="-1" Cut="0.0000000000000000e+00" cType="1" res="6.6177868284285069e-03" rms="4.4749468564987183e-01" purity="6.9421088695526123e-01" nType="-99"/>
        </Node>
        <Node pos="r" depth="1" NCoef="0" IVar="6" Cut="9.7054719924926758e-01" cType="1" res="-3.4450806677341461e-02" rms="4.6525517106056213e-01" purity="4.3776842951774597e-01" nType="0">
          <Node pos="l" depth="2" NCoef="0" IVar="-1" Cut="0.0000000000000000e+00" cType="1" res="-4.4927927665412426e-03" rms="4.6445733308792114e-01" purity="3.8873016834259033e-01" nType="-99"/>
          <Node pos="r" depth="2" NCoef="0" IVar="-1" Cut="0.0000000000000000e+00" cType="1" res="4.1776788420975208e-03" rms="4.5891818404197693e-01" purity="6.5403878688812256e-01" nType="-99"/>
        </Node>
      </Node>
    </BinaryTree>
    <BinaryTree type="DecisionTree" boostWeight="1.0000000000000000e+00" itree="61">
      <Node pos="s" depth="0" NCoef="0" IVar="1" Cut="3.1252856445312500e+02" cType="1" res="7.9242447391152382e-03" rms="4.6873259544372559e-01" purity="5.0797975063323975e-01" nType="0">
        <Node pos="l" depth="1" NCoef="0" IVar="3" Cut="5.4495215415954590e-01" cType="1" res="-5.5212575942277908e-02" rms="4.5554009079933167e-01" purity="3.7439471483230591e-01" nType="0">
          <Node pos="l" depth="2" NCoef="0" IVar="-1" Cut="0.0000000000000000e+00" cType="1" res="-7.3944698087871075e-03" rms="4.4074976444244385e-01" purity="3.3439037203788757e-01" nType="-99"/>
          <Node pos="r" depth="2" NCoef="0" IVar="-1" Cut="0.0000000000000000e+00" cType="1" res="9.0717576676979661e-04" rms="4.7910806536674500e-01" purity="4.6026885509490967e-01" nType="-99"/>
        </Node>
        <Node pos="r" depth="1" NCoef="0" IVar="5" Cut="2.1191823482513428e-01" cType="1" res="2.7669161558151245e-02" rms="4.7104889154434204e-01" purity="5.4975605010986328e-01" nType="0">
          <Node pos="l" depth="2" NCoef="0" IVar="-1" Cut="0.0000000000000000e+00" cType="1" res="6.0132658109068871e-03" rms="4.6322557330131531e-01" purity="6.3252812623977661e-01" nType="-99"/>
          <Node pos="r" depth="2" NCoef="0" IVar="-1" Cut="0.0000000000000000e+00" cType="1" res="1.0889373515965417e-04" rms="4.7327893972396851e-01" purity="5.0389450788497925e-01" nType="-99"/>
        </Node>
      </Node>
    </BinaryTree>
    <BinaryTree type="DecisionTree" boostWeight="1.0000000000000000e+00" itree="62">
      <Node pos="s" depth="0" NCoef="0" IVar="7" Cut="5.2695417404174805e-01" cType="1" res="1.4985152520239353e-03" rms="4.6862474083900452e-01" purity="5.0272262096405029e-01" nType="0">
        <Node pos="l" depth="1" NCoef="0" IVar="6" Cut="9.7970640659332275e-01" cType="1" res="-2.8577309101819992e-02" rms="4.7052231431007385e-01" purity="4.3569993972778320e-01" nType="0">
          <Node pos="l" depth="2" NCoef="0" IVar="-1" Cut="0.0000000000000000e+00" cType="1" res="-3.4878251608461142e-03" rms="4.7154137492179871e-01" purity="4.0052804350852966e-01" nType="-99"/>
          <Node pos="r" depth="2" NCoef="0" IVar="-1" Cut="0.0000000000000000e+00" cType="1" res="5.6552421301603317e-03" rms="4.5094367861747742e-01" purity="6.9138777256011963e-01" nType="-99"/>
        </Node>
        <Node pos="r" depth="1" NCoef="0" IVar="7" Cut="6.1167848110198975e-01" cType="1" res="5.0017271190881729e-02" rms="4.6143355965614319e-01" purity="6.1084449291229248e-01" nType="0">
          <Node pos="l" depth="2" NCoef="0" IVar="-1" Cut="0.0000000000000000e+00" cType="1" res="-2.3212276864796877e-03" rms="4.7412234544754028e-01" purity="4.8875188827514648e-01" nType="-99"/>
          <Node pos="r" depth="2" NCoef="0" IVar="-1" Cut="0.0000000000000000e+00" cType="1" res="5.4646083153784275e-03" rms="4.5658078789710999e-01" purity="6.3877713680267334e-01" nType="-99"/>
        </Node>
      </Node>
    </BinaryTree>
